 -1.1716773e+001 -4.5995447e-001 -5.4288721e-001  1.0602355e+000  5.0679589e-001 -1.1498124e+000 -7.9699056e-001 -6.2351771e-001  2.8294914e+000 -2.5883090e-001 -2.8991424e+000  1.2721042e+000 -9.9831188e-001  1.2926948e+000  6.7809949e-001  7.2457285e-001  1.7050303e-001  5.6179142e-001 -9.4041881e-001  3.5333112e-001 -5.2379009e-001  4.2141885e-001 -8.7871325e-001  1.1588779e+000  9.2357814e-001 -1.3124386e+000 -1.5619265e+000  7.4948940e-001 -9.9773961e-001 -7.4839431e-001  9.2870543e-001
 -1.0132378e+001 -7.6975467e-001 -7.3751775e-001  7.7745950e-001  6.5497255e-001 -5.7226408e-001 -4.3187442e-001 -5.7359962e-001 -2.5723822e+000 -7.8083249e-001  2.4150927e+000  8.4719800e-001 -2.0256153e+000  9.3680851e-001  9.7440264e-001  5.9926523e-001  7.6355779e-001  4.6781255e-001  1.7583558e+000  5.5998211e-001 -3.3738508e-001  2.8259593e-001 -6.6737861e-001  9.9483619e-001  6.5204040e-001 -1.0093786e+000 -1.5966679e+000  6.0469914e-001 -1.0846212e+000 -7.5802236e-001  7.2339296e-001
 -8.0639917e+000 -1.1440987e+000 -4.6633640e-001 -1.9643784e+000  5.2709698e-001 -5.9130512e-001 -3.0454359e-001 -2.0683778e-001  1.4531268e+000 -1.0515783e+000 -9.6210618e-001  6.2349292e-001 -9.0470186e-001  4.5178487e-001  3.7391210e-001  3.1482006e-001  3.2381045e-001  4.5543838e-001  1.4269628e+000  3.7441285e-001 -2.3624830e-001  3.5645139e-001 -3.5879915e-001 -1.5246310e+000  6.0504018e-001  1.5009201e+000  1.4307086e+000  3.9126256e-001 -1.4736331e+000 -9.6667764e-001  2.9636742e-001
 -1.3091296e+001 -2.0742861e-001 -1.2129145e+000  3.3179812e-001  1.9199889e+000 -2.3313588e+000  1.3503445e+000  1.2671372e+000  2.8149192e-001 -6.2697738e-001  3.0549073e-001  1.3225254e+000  4.5169803e-001  9.8626301e-001  3.1889935e-002 -1.3256097e+000  7.4535238e-001 -8.7632506e-001  9.0552159e-001  4.2295801e-001  2.8963606e+000  1.1288447e+000 -6.1838173e-002  3.4899343e-001  7.9567667e-001 -5.8627911e-001 -2.8731102e-001  1.1189626e+000  2.2595556e-001 -7.0595121e-001 -9.7439320e-001
 -7.6232841e+000 -3.6287569e-001 -1.7941250e+000  2.7780847e-001 -1.6542620e+000  1.3821003e+000  5.8641692e-001  6.0574256e-001  3.3508815e-001 -6.5052731e-001 -9.2220708e-001 -3.7902124e-001  2.2809814e-001 -1.9410079e+000 -1.1514158e+000  3.3703740e-001  1.0855202e+000  7.6439979e-001  9.3612467e-001  1.0971596e+000  1.3629003e+000  1.4493257e+000  6.2640318e-002  2.5518232e-001  1.0552647e+000 -4.7619045e-001 -4.0505637e-001 -2.3027684e+000 -1.2928452e+000 -5.8166134e-001 -6.2148767e-001
 -7.6612885e+000 -2.8512397e-001  4.1088504e-001  3.1587929e-001  1.4476105e+000 -1.7983969e+000  1.2758878e+000  1.4291702e+000  8.7385811e-001 -3.7297204e-001 -8.3147755e-001 -1.1895656e+000  4.9965772e-001  4.3775858e-002 -1.2200995e+000 -1.1792713e+000  7.5029897e-001  1.3389255e+000  7.0174654e-001 -6.4684589e-001 -2.4518407e+000 -9.9571283e-001  1.8775007e+000  3.8912312e-001  1.1190256e+000 -6.2809522e-001 -7.9106270e-001 -6.1779552e-001 -1.4676714e+000 -7.5610562e-001  3.3997469e-001
 -1.0630370e+001 -4.8471817e-001  1.1189956e+000  1.3949545e+000  8.8875436e-001  8.4776807e-001  1.3578276e+000  5.6726907e-001  1.2005914e+000 -1.0701497e+000 -4.9539458e-001  7.4952128e-001  6.8994011e-002 -6.8899378e-001 -4.3228135e-001 -1.2641267e+000  9.4526463e-001 -1.0539540e+000 -1.8923026e+000  9.5116808e-001  4.4917710e-001 -1.1970991e+000  5.4986589e-001  3.1640878e-001  8.6209512e-001 -8.4256108e-001 -6.5750066e-001 -1.0698726e-001  1.1347003e+000 -4.5553044e-001 -5.1511867e-001
 -8.6564490e+000 -7.8402363e-001  7.0057435e-001  3.1120937e-001 -7.1282477e-001 -1.0280931e+000  2.1579457e-001  3.8371954e-001  4.0646207e-001 -1.1650154e+000  1.2836424e+000 -6.2749145e-001  1.1556824e+000 -1.2175048e+000  1.3640189e+000 -9.5525677e-001 -8.1871324e-001  1.1162806e+000  2.5193110e-001 -7.1066455e-001  4.9874632e-001  1.2262461e+000  1.1861456e+000  1.0587319e+000 -9.6286971e-001 -3.6383511e-001 -8.2761749e-001 -9.7025236e-001 -6.1347502e-001  5.0524507e-001 -9.4812166e-001
 -4.3234139e+000 -1.7938593e-001  4.4424589e-001  8.8652946e-001 -1.0686942e+000  1.0778513e+000  5.0363824e-001  2.4937759e-001  1.0729617e+000 -3.9552174e-001 -1.3625800e+000  7.5826947e-001  5.8219798e-002 -6.2105422e-001 -6.7990649e-001 -5.2893177e-001 -1.5772064e+000 -9.8495933e-001  7.7562718e-001 -1.4070911e+000  1.3417205e-001 -8.1127598e-001  7.7782493e-001  6.0712471e-001 -1.1490008e+000  1.0462576e+000 -1.2012905e+000 -1.0234056e+000 -1.5095726e+000 -2.5958404e+000 -7.1720044e-001
 -1.0565300e+001 -1.3440705e+000  3.0733861e-001  1.2427566e+000 -6.5088136e-001  9.0798726e-001  2.6595013e-001  1.0533831e-001  1.1238297e+000  1.1414932e+000  1.0910698e-001 -1.6677715e+000  1.2714223e-001 -3.4233134e-001 -8.4649197e-001 -4.8068307e-001 -6.4584749e-001 -6.4124101e-001  1.2295831e+000  8.6143860e-001  1.4123503e-001 -5.5285550e-001  8.1719139e-001  1.3955511e+000 -6.7148538e-001 -1.8188826e+000  5.2801132e-001 -1.1584138e+000  2.4231877e+000  1.1475832e+000 -2.3462903e-001
 -8.3408745e+000  1.3510067e+000  1.1260911e+000 -2.2830218e-001  7.5953471e-001  1.1714442e+000 -2.0883168e-001 -1.2323317e+000 -2.3954705e-001  5.4361775e-001 -1.2455568e+000  1.1072212e+000 -1.4698524e+000 -2.9629225e-001 -1.7711555e+000  2.2202961e-001  6.6895144e-001 -1.0495395e+000 -2.5875186e-001  9.7438082e-001 -1.2687929e+000 -1.2001691e+000 -8.6152635e-001 -1.0747144e+000  7.6318076e-001  9.7852535e-001  7.1621770e-001  4.9771587e-001  4.1660474e-001  1.0718002e-001 -2.8030439e-002
 -6.6944511e+000  4.3584109e-001  8.1684569e-001 -1.3913092e+000 -6.3768100e-001 -7.3625422e-001 -1.2471868e+000 -1.1588313e+000 -1.0653325e+000  5.3486365e-001  3.9530132e-001 -8.7879536e-001 -4.3161307e-001  4.4810437e-001  1.5508061e-001  6.3961516e-001 -1.2787898e+000  1.1059022e+000  1.4987475e+000 -8.5703876e-001 -1.1347303e+000  1.0206879e+000 -4.1372102e-001 -3.8279651e-001 -1.0722321e+000  7.2325463e-001  3.8858448e-001  1.6816892e-001 -1.2199150e+000  7.0074671e-001  4.8056038e-001
 -1.2880399e+001  9.5282191e-001  2.4301074e-001 -7.3767602e-001  2.0151735e+000 -1.2208179e+000 -4.0848220e-001 -3.2647207e-001 -7.2646036e-001  1.2570224e+000  2.4409027e+000  6.2087497e-001 -5.5014744e-001  5.5126335e-001  4.7678961e-001  2.4015901e-001  1.2566538e+000  2.0710748e+000 -1.2598178e+000 -5.5058064e-001 -5.5004796e-001 -1.0227075e+000 -3.4952709e-001 -3.6839244e-001  8.7476119e-001 -5.5289725e-001  3.2012053e-001  6.8106741e-001  1.6314709e-001  2.0750829e+000  4.2625092e-001
 -7.8541942e+000 -1.5708953e+000 -1.7906559e+000 -1.1038131e+000 -2.6274692e+000  1.2780966e+000 -3.0537038e-001 -6.8980636e-001 -1.4467050e+000  1.5444591e+000 -3.6862475e-003 -1.1205363e+000 -8.8044684e-001  5.0824100e-001  5.9372408e-001  2.1211747e-001  1.2469727e+000  7.3805505e-001 -1.3395901e+000  7.5043107e-001 -5.1399211e-001  1.3433016e+000 -5.4677201e-001 -8.4195123e-001  1.5379637e+000  1.5104447e+000  5.1214424e-001  7.0693189e-001  1.0531261e-001 -1.0780549e-001  4.8383852e-001
 -6.8632010e+000  1.9705461e+000 -1.6302815e+000 -1.1888202e+000  1.3969044e+000 -1.6413218e+000 -1.7363085e-001 -1.4998661e-001 -1.5447407e+000 -1.2816401e+000 -1.7148180e+000  1.2838107e+000 -9.3873826e-001  7.2047524e-001  1.0422073e+000  2.3430072e-001  1.1628041e-001 -2.1693702e+000 -9.2243494e-001  2.0187475e-001 -2.4464840e-001  1.3029925e+000 -6.3734499e-001 -9.2010748e-001  2.2564738e-001 -5.0299445e-001  7.7318780e-001  4.4172338e-001  1.2662348e+000 -2.6112595e-001  5.0675571e-001
 -6.8717333e+000  2.8439336e-001  2.0206230e-001 -5.7789771e-001 -6.8219567e-001  1.0331943e+000 -1.2199522e+000 -1.2513941e+000 -8.0774778e-001  2.0872152e-001  1.3146311e+000  8.3103937e-001 -1.0258266e+000 -1.1214090e+000  2.6056489e-001  6.9471937e-001 -8.2938201e-001 -1.0164072e+000 -9.4343303e-001 -1.2119821e+000  1.5569936e+000 -7.8318877e-001 -1.5525350e+000 -2.9559148e-001 -9.0382198e-001  3.0173408e-001  4.2808669e-001 -5.7802025e-001  8.5136183e-001  1.1443225e+000  1.6550224e+000
 -6.5082300e+000  5.2902172e-001  4.4430679e-001 -3.2900445e-001 -1.0915125e+000  9.5936722e-001 -1.0676482e+000  2.9914516e-001 -3.1817384e-001  2.0126615e-001 -7.9224486e-001 -1.5756510e+000 -1.3198391e+000  2.1663470e+000  1.1495913e+000  5.3652046e-001 -1.5234220e+000 -9.0135032e-001 -8.2868942e-001  8.8391171e-001 -7.4316750e-001 -8.7155004e-001  9.8459845e-001 -4.7420868e-001 -1.4121941e+000  5.8504295e-001  5.4838432e-001  1.3969676e+000  8.2372977e-001 -8.9391335e-001 -8.1976313e-001
 -1.0648771e+001  7.1809208e-001  4.9246138e-001  1.9925410e-001 -1.1155742e+000  7.2365703e-001 -1.4280430e+000 -1.1719846e+000 -7.4783913e-001 -1.5455146e+000 -9.6142239e-001 -9.5243136e-001  1.8347816e+000  1.6481816e+000  1.1761252e+000 -8.2020296e-001 -8.2037086e-001  3.0553379e-002  1.5596805e+000  1.6327078e+000  1.4722567e+000  9.1971983e-001 -1.7691032e+000  7.5400123e-001  1.0716600e+000 -1.3713750e+000  8.9828767e-001  1.1968401e+000  1.4459470e+000  1.0163061e+000 -5.9190285e-001
 -2.4133386e+000 -8.5085700e-001  7.2950912e-001  1.0636773e+000  1.4446735e+000 -1.1417887e+000 -1.5612508e+000 -2.7200366e-001 -8.5719287e-001 -1.5900778e-001  4.2663689e-001  1.5972158e+000 -3.6476306e-001 -1.5808797e+000 -1.8017122e+000  1.1948595e+000 -1.7557718e+000 -3.6957821e-001  9.7456816e-001 -1.9347823e+000 -2.0811972e+000  1.3703659e+000  8.4269974e-001 -8.7459264e-001  1.1155814e+000  5.1582667e-001 -1.5102786e+000 -9.5206799e-001 -9.1414488e-001 -1.6566352e+000 -5.6980914e-001
 -1.4877696e+001 -1.8379751e+000 -7.5061580e-001  1.6129034e+000 -1.1305117e+000 -2.0224915e-001 -1.5829064e+000  1.8910810e+000  1.6410249e+000 -4.9433132e-001 -6.0069909e-001 -1.2700123e+000  2.8771816e+000  7.1402083e-001  2.9764598e-001  1.4843283e+000  1.0415983e+000  1.8198545e+000 -1.1908492e+000 -2.2226860e-002 -9.5510137e-001  1.1995504e+000  5.0512168e-001 -1.4314922e+000  5.5130370e-001  1.2216079e+000  1.1190526e+000  2.3442138e+000  8.6151983e-001  9.8252471e-001  1.0779193e+000
 -7.2026512e+000 -1.4600991e+000  3.8107661e-002  1.4417976e+000 -1.6345084e+000  1.6181650e+000 -1.2240858e+000 -1.2462198e+000  1.2644389e+000  1.5519383e+000 -1.5091185e+000 -7.0589719e-001 -8.8311056e-001 -1.6785422e+000 -2.2357196e+000  1.5852590e+000  7.0434196e-001  4.2703446e-001 -5.0438584e-001  1.5366133e+000 -6.1824589e-001  1.6176120e+000  7.8711221e-001  4.9966766e-001 -1.2739712e+000  1.2843055e+000  6.1799110e-001  5.2925936e-001 -2.9631824e+000 -2.3244652e-001  1.5485544e+000
 -8.9396509e+000  4.5740775e-001  5.3654638e-002 -4.9847779e-001 -2.4347213e-002  1.5968858e+000 -1.4312610e+000 -7.2675608e-002  7.2984813e-001 -1.9721408e+000  2.2032564e+000  2.6713881e+000  2.1223283e+000 -9.8939190e-001  1.6588238e-001 -1.4232735e+000  1.1575670e+000  2.0138456e+000 -1.1628564e+000  8.8445191e-001 -1.0289047e+000 -4.5516431e-001  5.6535716e-001 -7.3966752e-001 -8.1081133e-001 -6.0402601e-001 -3.1413155e-001  2.7198921e-001 -2.4486194e+000  1.3343040e-001  1.3112687e+000
 -1.3012011e+001 -2.1058723e+000 -1.5355246e+000 -5.8973830e-001 -9.8413683e-001  1.3515376e+000 -8.4126420e-001  7.8064338e-001  9.7329246e-001  9.1199602e-001  1.8320797e+000  8.4822479e-001  1.9037660e+000 -3.2617350e-002  1.7462644e+000  2.1960495e+000  1.0855034e+000 -7.6733604e-001 -1.8398582e-001 -4.7958993e-001 -1.1642804e+000  1.1515970e+000 -1.0242716e-002  1.7861252e+000  3.1487362e-001 -2.1962062e+000 -5.0360900e-001 -1.0855704e+000  1.8030226e+000  6.0568076e-001  1.6552978e+000
 -7.5915039e+000 -1.1601214e+000  7.5764000e-001  1.1657700e+000 -1.2739139e+000  1.0655347e+000  1.3506163e+000 -1.6979310e+000  9.4387237e-001 -1.5331400e+000 -1.5280460e+000 -1.3410566e+000  1.7023723e+000  2.9187719e+000 -7.6145230e-001  1.7407929e+000  1.6170697e+000  5.0033199e-001 -5.2270564e-001  5.8689057e-001  4.8737190e-001 -1.6957689e+000 -2.0404519e+000 -5.0688657e-001 -1.3923832e+000 -6.8536952e-001 -1.2544929e+000  1.0711210e+000  4.5325879e-001  2.4240371e-001 -4.8224568e-001
 -7.0229452e+000  1.3942345e+000  6.5823221e-001  9.0025469e-001  2.0953188e+000 -6.4366346e-001  1.2602029e+000 -1.9072519e+000  8.6463080e-001  1.9210764e-002 -1.6275848e+000  1.3000295e+000 -4.1539708e-003 -1.1508574e+000  1.0090386e+000  5.5047270e-003  1.2386620e+000 -5.8797588e-001 -3.9944457e-002  1.0817290e+000 -8.4839412e-002 -1.5557816e+000 -1.8390765e+000  1.6343295e+000 -2.1312298e+000  1.9878925e+000 -1.1454965e+000 -6.9803542e-001 -2.2911340e+000  1.6756339e-001 -1.0097916e+000
 -8.3591665e+000  2.1938902e-001  4.1893281e-001  1.4410443e+000  4.0971714e-001 -3.6171411e-001  2.0332276e+000  1.2092970e+000 -2.6936794e+000  6.2713283e-001 -6.4027870e-001  6.7302987e-001  1.0799280e+000  2.2217083e-001  1.7570436e+000  1.8242713e+000 -1.8648172e+000 -1.9162450e+000  4.9922470e-001 -9.2289775e-001  6.7131701e-001 -1.4999575e+000 -1.3985978e+000  1.6210000e-002 -2.1266801e-001  2.0454137e+000 -4.1134826e-001  1.0520776e+000 -1.2096860e+000 -1.2713964e+000 -1.6671726e+000
 -7.1646803e+000  1.9139213e+000  2.9626055e-001  4.5961896e-001 -1.6062900e+000  1.1988118e+000  1.1173967e+000  5.6584630e-001 -2.3841515e+000  6.2727932e-001 -1.5733305e+000  4.0961132e-001  3.6590929e-001 -1.8445751e+000 -1.8831746e-001 -1.1791977e+000 -1.9299525e+000  5.2724486e-001  8.3051187e-001  1.1529597e+000  4.8892800e-001  9.2141874e-001 -9.3662462e-001 -2.1098871e+000  1.5321038e+000  1.1474531e+000 -2.0273888e+000  1.2820974e-001  1.2650788e+000 -4.3078712e-001 -5.2992165e-001
 -1.0459391e+001  3.2677226e-001  1.3597376e-001 -1.4126841e+000 -1.2478172e-001  1.2744893e+000  7.1561396e-001  4.2743112e-001 -1.6585432e+000  7.1354825e-001  1.4399874e+000  2.1754770e+000  4.9902872e-001 -1.5832882e+000  2.2951160e-001  1.1729594e+000 -8.2732959e-001 -1.2481503e+000  1.0054978e+000  8.3353435e-001  2.6644828e-001  3.6350165e-002  1.1914265e+000  1.6810739e+000 -1.3050820e+000 -9.9118718e-002  1.6178536e+000 -2.5917383e+000 -1.7471566e+000  1.4345552e+000 -7.6261878e-001
 -1.0963319e+001 -2.1955919e+000  1.0272243e-001 -8.6897568e-001 -1.3392200e+000  1.0818173e+000  1.1988387e+000  8.3526945e-001 -1.0955808e+000 -1.1750773e+000  1.8463761e+000 -4.2539734e-001  9.7312654e-001  2.3130420e+000  1.1974177e+000  1.2860523e+000 -7.2730823e-001 -1.2818084e+000  3.3000574e-001 -7.5845212e-001  3.6310566e-001 -1.7416344e+000  8.3573843e-001 -9.8157986e-002  1.0729480e+000 -1.2161489e+000  1.5262020e+000 -1.1923049e-001  2.0785202e+000  1.0206699e+000 -8.7313779e-001
 -7.3410694e+000 -3.0934865e-001  1.4250809e-001 -1.0147584e+000 -1.0304797e+000  2.9146487e-001  6.0311345e-001  5.8007122e-001 -1.2413822e+000  5.0276140e-001  7.3805087e-001 -2.3563916e+000  6.1872233e-001  3.6151102e-001 -3.1530954e+000 -2.2009778e-001 -6.0839654e-001  1.7765753e+000  8.9991904e-002 -9.4619989e-001  5.8590830e-001  6.9962584e-001  1.3392526e+000 -2.5762508e+000  1.1549821e+000 -4.8142115e-001  1.1994888e+000  1.1693928e+000 -2.8511736e-001  9.0209980e-001 -7.9814728e-001
 -9.0867308e+000  1.9514282e+000  2.3378304e-001 -1.2791574e+000  2.4184092e+000 -2.0791843e+000  5.5948728e-001  3.7530924e-001 -9.3682591e-001  8.1845453e-001  1.3261809e+000  1.5303040e-001  4.9037315e-001 -1.8740646e+000  4.4339808e-001 -2.8689390e+000 -1.1800044e+000  2.9267737e-002 -2.2568100e-001 -1.0936906e+000  4.3539473e-001 -7.6343101e-002  1.0742884e+000  9.0674876e-001  8.1586655e-001  6.7802911e-002  1.0262663e+000  6.0979299e-001  2.5734065e-001  9.6559524e-001 -8.8614719e-001
 -8.3688190e+000 -1.2726421e+000  9.1931320e-001  1.1281583e+000  1.6818700e+000 -1.4958297e+000  8.3088823e-001 -1.7339198e+000 -1.8725312e-001 -1.3715701e+000  8.1680561e-001 -1.5301902e+000  1.1287621e+000  1.2929036e-001  6.6541266e-001  4.9384315e-002 -1.2848562e+000  3.5031335e-001  1.1952885e+000 -1.2852934e+000 -2.3483965e+000 -1.3630142e+000  1.6142497e-001  1.2875485e+000  1.2921040e+000  1.5344570e+000  4.4238493e-001  1.3239010e+000  9.5493555e-001  1.0900151e+000 -1.5241323e+000
 -1.3905365e+001 -5.8361952e-001 -2.0234612e+000  1.0183041e+000  9.7571805e-001 -5.5853658e-001  1.4442969e+000 -1.1241501e+000 -1.5245139e+000 -1.0673418e-001  1.1787700e-001  1.2730905e-001  1.9451939e+000  2.9950978e-001  4.1981757e-001  8.8927515e-001 -1.2302800e+000  1.1290667e+000  1.2810932e+000  1.6785042e+000  1.6581806e+000 -1.2925680e+000  1.1287076e+000  1.0690827e+000  9.7271624e-001  1.2819759e+000  1.1836717e+000  4.6427548e-001 -1.0381905e+000  6.3134595e-001  2.4812649e+000
 -6.7223656e+000  1.2874031e+000  4.3381159e-001 -4.5707009e-001 -8.0117405e-001  1.5211413e+000 -1.1891360e+000 -9.1048208e-001 -6.5887474e-001 -4.7872521e-001  7.6040359e-001 -6.9714048e-001  1.6198323e+000  1.7242558e+000 -4.7211191e-002  2.5774989e-001 -1.5738460e+000  9.1402914e-001  1.0910744e+000 -1.4762068e+000 -1.9770388e+000  9.3192750e-001  1.0611391e+000  1.0243028e+000  1.2884558e+000 -1.3616911e+000 -1.8854162e+000  1.3213951e+000 -5.9691550e-001 -2.1783916e+000 -9.0496680e-001
 -1.0318621e+001 -1.7586311e+000  1.4684280e+000  1.6290073e+000  1.3321141e+000 -1.5119991e+000 -1.6864824e+000 -1.0683410e+000 -1.2030249e+000  2.9710131e-001  9.4582534e-001  1.5282550e+000 -6.6174282e-001 -1.5013507e+000  8.8245912e-001 -4.0844773e-001 -5.7979421e-001 -5.5136430e-001  1.4733465e+000  1.3408790e+000  1.7001548e+000  1.4485767e+000 -1.3077281e+000 -3.4691618e-001  1.7844534e+000 -5.5378299e-002  7.2577184e-001 -1.0767507e+000  1.6700727e+000  1.2952763e+000 -7.0444111e-001
 -8.2107898e+000 -1.2376666e+000  1.5478014e+000 -1.1061435e+000 -1.2954394e+000 -1.4049896e-001 -6.7879126e-001 -1.1615814e+000 -1.3217150e+000 -1.8464100e+000 -3.2615098e-001  1.8590634e+000  6.0266057e-001  1.9607256e+000 -6.1891838e-001  1.9514720e+000  5.5204301e-001 -1.3983629e+000 -3.7269561e-001  1.7944931e+000  1.3933119e+000 -1.3623958e+000  9.9254537e-001 -1.9127313e-001  4.1650961e-001 -4.1691899e-001 -1.3042075e+000  3.3533953e-001  4.4494866e-001 -7.6263967e-001 -8.8770758e-001
 -1.0569227e+001  1.6543828e+000  1.0213340e+000  6.8565096e-001  1.4837755e+000  5.0436992e-001  1.0636802e+000 -7.7731271e-001  1.0774525e+000 -2.5250516e-002  7.9677007e-001  1.0433941e+000 -2.1475674e+000  4.9264615e-002  6.0133621e-001 -2.8811636e+000 -1.2542063e+000  1.4169281e+000  3.8533882e-001  3.0683461e-001 -5.4302215e-001 -7.4920596e-001 -7.1708182e-001  1.3362122e+000 -8.8240573e-002  5.6184506e-001  8.1185738e-001 -1.4634299e+000 -3.6040654e-001  9.6294876e-001  1.0245959e+000
 -9.9547641e+000  2.0146535e+000 -8.0403432e-001 -6.0903100e-001  2.6284775e+000  1.3623438e+000 -1.1320518e+000  1.4788071e-002 -9.0412376e-001  9.3325074e-001 -5.3689201e-001  4.6810593e-002  8.4852860e-001  4.8224793e-001 -1.0538102e+000  2.1313296e-001  1.1416481e+000 -1.8642696e+000  1.1297980e+000 -5.9395139e-001  1.3667843e+000  9.9564401e-001  9.2844993e-001 -1.1005731e+000 -1.1906501e+000 -8.3297426e-001 -1.1287518e+000  2.0325306e+000  9.6408601e-001 -1.4134521e+000 -1.3665936e+000
 -1.1016112e+001  6.8318249e-002 -1.7310939e-001  1.1841653e+000 -1.4506621e+000  3.1456025e-001  1.3435869e+000 -4.8042278e-001  1.4593752e+000  2.4035966e+000  4.1175081e-001 -2.3814744e+000 -1.0543329e+000  1.5395150e+000  3.2012743e-001 -3.3593808e-002 -1.0284602e+000  1.7783789e+000 -1.7763587e+000 -1.6222822e+000 -1.6045877e-002  1.0241117e+000 -5.0585073e-001  3.2214260e-001  5.3509476e-001 -1.4045766e+000 -3.7104433e-001  9.7891847e-001  8.7690027e-001  7.4310482e-001  1.6361689e+000
 -8.8971418e+000 -9.9883052e-003 -9.0102231e-001  8.7127907e-001  1.5117920e-002  1.3587041e+000  8.8131910e-001  1.2430832e+000  1.2017848e+000 -1.0016425e+000  5.2515703e-001  1.7598742e+000 -9.1801530e-001 -1.8857956e+000  6.5951662e-001  4.6568587e-001 -9.4146457e-001 -2.1131515e+000  1.7350262e+000 -1.5733235e+000  4.8781502e-002  1.6161353e+000 -9.4569289e-001 -1.7665631e+000 -6.3697839e-001  7.3396464e-001  1.0605947e+000 -5.0055353e-001 -1.5510461e+000  8.6636616e-001  1.6212859e+000
 -5.8854214e+000 -1.7442011e+000 -4.5573873e-001 -1.2682441e+000 -8.4948595e-001 -1.7046467e+000 -1.3329888e+000  1.3736257e+000 -1.5128792e+000  5.7331634e-001 -7.5617083e-001 -1.6819798e+000  4.4928234e-001 -3.1473437e-001 -8.1042900e-001  1.6467554e+000  1.0403739e+000  1.6728073e+000 -1.6617960e+000 -3.1640501e-001  9.4359561e-001  1.1050865e+000  7.1164192e-001  2.1846744e+000 -1.1016660e+000  6.7235633e-001 -1.5216086e-001 -9.1323925e-001  1.3069826e+000 -7.1054389e-001 -1.1846528e+000
 -6.0553429e+000  5.8091228e-001 -7.1702146e-001  8.4044629e-001  4.1713222e-001 -1.8540407e+000  7.8893090e-001 -1.5237465e+000  9.4999507e-001  1.3157687e+000 -1.6229177e+000 -1.3574048e+000  1.7519829e+000 -2.3134058e-001  5.4754790e-001 -1.2136159e+000  1.0549776e+000  2.0304492e+000 -1.3290015e+000 -1.7806923e+000  1.4328726e-001  8.2682876e-001 -1.9333534e+000 -1.0999130e+000  1.1041639e+000  1.4255637e+000 -1.8568297e+000  5.7030531e-001  1.0502557e+000 -1.5661059e+000 -9.3862135e-001
 -5.7223407e+000 -1.9932162e+000 -4.1800197e-001  7.3995054e-001 -2.0098331e+000  9.1567061e-001  9.5114675e-001 -1.6065966e+000  1.0526553e+000 -1.3888845e+000 -1.1497940e+000  1.0418804e+000 -5.5053553e-001 -7.3758313e-001  2.6474237e+000  1.4967756e+000  9.4922436e-001 -1.6664027e+000 -2.9977811e-001 -1.6817353e+000  8.3178561e-001  4.5364681e-001 -2.1114449e+000  1.0187764e+000  8.0008316e-001  1.0196606e+000 -2.7019508e-001 -1.0224540e+000  1.0889413e+000 -1.8583737e+000 -9.2308852e-001
 -5.5269729e+000 -3.9115164e-001  1.1559719e+000 -1.2676641e+000 -3.1744222e-002  8.9660182e-001 -1.7262989e+000  1.1024600e-001 -1.4788314e+000  2.0648237e+000 -4.3934815e-001 -9.1229407e-001  1.2252016e-001 -2.3858730e+000 -4.8858267e-001 -2.2871205e+000  1.1424850e+000  2.7764078e-001  5.8448677e-001  1.8936003e+000  6.9099253e-001 -1.2151554e+000  5.4201633e-001  1.0508028e-003  8.4134917e-001  6.9284595e-001 -2.2183091e+000 -1.0651099e+000 -1.0140857e+000 -8.8589854e-001 -4.8693811e-001
 -1.0874157e+001 -1.5949225e+000  2.0595624e+000  8.4752443e-001 -1.1716755e+000 -2.7700617e+000  9.7933352e-001  1.9347247e+000  1.0803295e+000 -1.1322032e+000  5.8021860e-001 -3.3367536e-001  1.1077318e+000  5.9893238e-001  5.5914399e-001  5.9323418e-001 -1.1073351e+000 -7.9467051e-002 -5.6128110e-001  4.7377405e-001 -2.0686844e-003 -6.6594156e-001 -9.0718669e-001 -1.8407856e+000  1.3492498e+000 -6.2253982e-001  1.8435401e+000  1.0558832e+000 -3.2587990e-001  1.0315628e+000  1.4940688e+000
 -2.6362969e+000  1.5328291e+000  1.7801100e-001 -2.2805345e+000 -9.2184337e-001  1.8193280e-001  1.2007149e+000  5.4183680e-001  9.9855722e-001  5.9554359e-001 -6.0660917e-001  1.9687077e-001  4.3997624e-001  6.6351849e-001 -2.2456113e+000 -2.2651970e+000  6.4792523e-001 -1.1393664e+000 -2.4532315e+000 -1.6291565e+000  1.0274566e+000 -6.2621493e-001 -1.6218753e+000 -2.7093526e-001 -1.2069064e+000 -1.7523619e+000 -6.4751928e-001  1.0297398e+000 -5.7524522e-001 -5.6716977e-001  1.2148431e+000
 -1.4680409e+001  1.0650257e+000  6.2040958e-001 -1.4669889e+000 -1.2818004e+000  1.5981098e+000  2.0547259e+000  1.3878394e+000  1.2763777e+000  7.9880306e-001 -1.1811013e-001  1.6351967e+000  1.4990281e+000  1.1920258e+000  2.6434570e+000  2.0386185e+000  9.4650883e-001  8.2897864e-001 -1.3553960e+000  4.3183599e-001  1.2115745e+000 -1.1792380e+000 -7.2326729e-001  6.9226387e-001 -2.0128331e+000 -7.0146365e-001 -3.6181052e-001  3.9024716e-001 -1.0183656e-001 -7.5545030e-001  5.9020203e-001
 -8.3884356e+000  8.5708398e-001  1.9844741e-001  4.0246890e-001 -1.1147460e+000  4.1871653e-001  4.0350390e-001  4.1743126e-001  8.9337408e-001  2.3461659e-001 -1.3736302e+000 -1.2367613e+000  5.8616267e-001 -1.3722910e+000  4.7304632e-001 -1.7023907e+000  1.3851939e+000 -5.4374943e-001 -1.1956633e+000  1.2814795e+000  7.4012052e-001 -7.9800066e-001 -9.3923223e-001 -8.5238047e-001 -1.4329800e+000  1.3522078e+000  1.6044895e+000 -1.0114125e+000  7.6431435e-001  1.9568698e+000 -1.4244264e+000
 -6.9308951e+000  9.1080609e-001  1.6444166e-001  2.3786904e-001 -5.1011872e-001  5.6986336e-001  6.0685828e-001  4.5747702e-001  8.6901595e-001  3.9038171e-001  1.7886200e+000 -1.3140482e+000  4.1341705e-001 -1.2685823e+000 -1.5748406e+000  8.4525207e-001  7.4953091e-001 -8.9175608e-001 -1.0560388e+000 -1.4363409e+000 -1.4047072e+000 -4.0905628e-001  1.6977318e+000 -1.2687287e+000 -1.5017148e+000  1.2373504e+000 -1.3692646e+000 -1.0353350e+000  8.0829904e-001 -6.1051338e-001  1.0869106e+000
 -1.0123946e+001 -9.8941749e-001 -1.6050163e+000 -8.2094723e-001  1.2749838e+000  7.7042113e-001 -1.1567104e+000  6.8248185e-001  5.9823261e-001  5.8942296e-001 -8.9100450e-001  8.6976140e-001  5.1523235e-001 -1.1111421e+000 -9.2883206e-001 -1.1608655e-002 -8.0676081e-001 -1.2165331e+000 -1.2294237e+000 -1.4045000e+000  1.5712176e+000 -8.2967433e-001  1.3065196e+000  1.0131063e+000  1.4556637e+000  4.1787118e-001  9.7531774e-001  1.2080885e+000  4.7900416e-001  1.1717523e+000  2.0395019e+000
 -9.6657039e+000  6.0524376e-001 -1.5780481e+000  1.0055814e+000 -5.7334977e-001 -8.8875947e-001  6.9798470e-001  3.7309205e-001 -8.3994878e-001  4.0532518e-001 -5.6685889e-001 -1.2294442e+000 -1.4544513e+000  1.2392845e+000  5.9608433e-001 -1.0138233e+000  9.0178825e-001  3.6821309e-001  1.1327724e+000  1.5023044e+000  1.9882702e+000  9.4820308e-001  1.3914440e+000 -4.7354848e-001 -1.3379986e+000  5.8705588e-002  1.6998770e+000 -9.6233743e-001 -1.0455701e+000  1.5165592e+000 -5.3024417e-001
 -6.3023687e+000  1.2415004e+000  1.4067127e+000  9.7340857e-001 -6.6527425e-001 -7.5768388e-001  1.0337342e+000  1.1478498e+000 -6.6060065e-001  3.1722222e-002  6.8543057e-001 -7.4647802e-001 -8.8077677e-001  1.1626026e+000  4.2158226e-001  6.9550051e-001  1.1828813e+000  1.0912549e+000  9.3170278e-001 -1.5584432e+000 -3.7182510e-001  5.5464521e-001 -1.3886155e+000 -1.6998861e+000 -1.1796179e+000 -4.4724191e-001 -1.9741276e+000 -1.1545952e+000 -6.7546666e-001 -1.5685511e+000 -1.1846135e+000
 -1.0263037e+001 -1.5248184e+000  1.7304014e+000 -1.0480360e+000  1.0492723e+000  4.1882199e-001 -6.6692282e-001  1.4017189e+000  6.2890099e-001  1.4898711e+000  5.3862881e-001  1.0007737e+000  9.6280518e-001 -8.8334210e-001 -5.4474631e-001  1.0895426e+000 -8.4493967e-001 -1.1303298e-003 -1.2300602e+000  8.6385164e-001 -1.8523592e+000 -9.1775959e-001 -1.2822534e+000  1.1100900e+000  9.6038252e-001 -1.5593091e-001  8.3964758e-001  1.0407037e+000  5.5295644e-001 -1.7349082e+000 -1.4431810e+000
 -6.6673191e+000  1.7305972e+000 -1.4389206e+000  2.0266152e+000  1.8245717e+000 -2.0934268e+000 -1.1849366e+000  8.1453505e-001  1.3465273e+000 -1.4594888e+000 -1.6970124e+000 -1.3561411e+000  6.3050136e-001  2.2155247e+000 -1.6719665e+000 -7.9687272e-002  5.2373893e-001 -1.5521364e+000 -4.0046144e-001  1.4342512e+000 -1.1690026e+000 -4.1648687e-001  4.0923111e-001 -1.5163887e+000 -1.8690183e+000  9.1232014e-001 -3.0907394e-001  3.4234129e-001  7.4777702e-001 -6.1475667e-001  1.3274967e+000
 -6.4012316e+000  1.0341543e+000  5.9261372e-001 -6.3035294e-001  2.4295234e+000 -1.7052030e+000 -1.1046710e+000 -1.4994101e+000  1.3630839e+000 -1.8012618e+000  1.8693150e+000  6.1702743e-001  8.0933121e-001 -8.3600785e-001 -1.9770767e+000  4.0256486e-001  9.5481444e-001 -1.5884248e+000 -1.2545539e-002 -9.4509184e-001 -1.4373689e+000  1.1361628e+000  6.6745221e-001  6.9779029e-001 -1.5221481e+000 -1.9286986e+000  5.6712413e-001 -1.3341153e+000  1.1511951e+000  1.2453919e+000  1.1780988e+000
 -8.4191933e+000  6.1118722e-001 -2.0062580e+000  1.6640013e+000  8.0500668e-001  1.0245298e+000 -1.6498732e+000 -1.2746868e+000  1.5603613e+000  1.6391039e+000 -1.1730016e+000 -7.4301248e-001 -1.0772470e+000 -1.0080839e+000  1.9274259e+000 -2.1010478e+000  7.5824739e-001 -1.7318987e+000  2.6115408e-001  1.8012323e-001 -1.6906384e+000  1.5666969e+000  6.6969592e-001  2.0472692e+000 -1.2988626e+000  1.3719691e+000  3.4697323e-001 -1.2069692e+000  1.0632631e+000  6.4393767e-001  9.9300490e-001
 -4.4278930e+000 -7.7981458e-002 -2.0627379e+000 -6.3425792e-001 -1.4390959e+000 -6.0650026e-001 -1.0940151e+000 -2.2754599e+000  1.0858256e+000 -4.5081012e-001  1.7011011e+000 -1.9444183e+000  3.3096868e-002  2.4388142e+000  2.5922784e-001 -2.0785639e+000  1.0665001e+000  7.2800224e-001 -9.7165865e-001  1.2376053e+000  1.8332807e-001 -1.3233027e+000  1.0974819e+000  1.9719610e+000 -1.0109999e+000 -2.1960904e+000  8.1630844e-001 -1.1173831e+000  2.1459181e-001 -8.0936648e-001  1.1149305e+000
