 -7.6387376e+000  3.2086151e-001 -2.2646744e-001 -3.9333924e-001 -2.6334591e-001 -6.1309306e-001  2.3091365e-001 -2.8555005e-001  3.5223265e-001 -5.8786696e-001  3.1724248e-001  4.4617544e-001  2.1990422e-001 -3.3471989e-001  3.8158302e-001 -3.1216437e-001  1.3390273e-001  2.2705120e-001 -3.2365590e-001  1.2745638e-001  2.9310780e-001  3.5111349e-001  2.7065498e-001  2.2909599e-001  9.3895101e-002 -3.1570782e-001 -3.2198755e-001  2.7245190e-001 -3.1504202e-001 -5.9648144e-001 -9.6883462e-002  2.8145463e-001 -5.4380195e-001  3.0847539e-001  3.7442622e-001  4.6449161e-001  2.5150259e-001  4.2961406e-001 -3.3241469e-001 -3.8468290e-001  3.5446989e-001  3.5097839e-001 -5.0052956e-001  3.4278408e-001  5.2371644e-001  4.8667662e-001  3.6507877e-001 -6.0662754e-001 -4.0324481e-001 -4.5104875e-001  3.3474046e-001 -2.8337334e-001  3.2262579e-001 -3.4562961e-001  4.1045670e-001  3.8518995e-001 -3.5595680e-001  3.3384440e-001 -4.7661824e-001 -5.2561359e-001 -3.2752812e-001
 -8.5586337e+000 -8.2645370e-001 -7.9354906e-001  2.3140294e-001  1.7098126e-001 -1.3459090e-001 -2.5930053e-001 -3.9253143e-001  4.3990226e-001 -4.0324852e-001 -9.7144347e-002  2.8493359e-001 -9.1890056e-001  1.6596006e-001  2.3134987e-002  5.4338275e-001  3.7891084e-001  5.4155683e-001 -4.7810793e-001  2.6480579e-001  3.4137741e-001  3.6861574e-001 -1.5449830e-001  1.5024618e-001  3.8240612e-001 -4.4108379e-001 -2.6777543e-001  2.1996684e-001  5.6815924e-001 -5.2282549e-001 -5.8350367e-001  3.4776238e-001 -1.9851348e-001 -2.9086727e-001  2.5105507e-001 -5.5933830e-001 -2.7369712e-001 -2.7816073e-001 -3.8881920e-001  4.4365217e-001  5.9935031e-001  1.6766813e-001 -3.3917158e-001  5.9247626e-001  3.9339977e-001 -7.3664274e-002  3.2611227e-001  4.8887632e-001 -3.4630881e-001 -4.6065154e-001  2.2428657e-002  6.0564574e-001  4.7873015e-001  6.3021875e-002  5.0958562e-001  4.9734508e-001  5.0691661e-001  1.1264052e-001 -3.7913441e-001  1.9695924e-001  2.5122834e-001
 -8.0076693e+000  5.4518611e-001  5.7675837e-001  5.8303449e-003  4.4069555e-001 -8.8351316e-002 -4.7522167e-001 -3.7593460e-001  1.3907445e-001 -2.4854845e-001 -3.9609103e-001  3.4620997e-001  5.4784644e-001  4.3129414e-001 -4.6632043e-002  2.1125526e-001  4.6392779e-001  4.1251987e-001 -4.1267109e-001  3.3962448e-001  1.0259611e-001  3.6377363e-001  3.8952352e-002  2.5335214e-001  4.1969941e-001 -3.5488772e-001 -3.4986366e-001  4.1527760e-002 -6.8560400e-001 -4.6670526e-001 -5.6005818e-001  3.0183078e-001 -2.4923627e-001 -1.0383476e-001  3.2420008e-001  5.6298526e-001 -2.0817508e-001 -3.3598802e-001 -6.0245475e-001  4.8691078e-001 -7.3967081e-001  2.3780653e-001 -4.1983765e-001 -7.2359387e-001  3.9089071e-001  4.0931674e-002  3.7673119e-001  4.5243515e-001 -5.7619544e-001 -2.0511053e-001  4.7159156e-001  5.1335400e-001  4.9431875e-001 -2.9630845e-001 -5.9848914e-001 -3.8789112e-001  4.7961744e-001  9.1431705e-002 -4.4652390e-001 -1.8587798e-003  3.7275560e-001
 -6.7179215e+000 -6.1539775e-001 -3.0339729e-001 -3.4613355e-001 -3.2350866e-001  5.6184472e-001  2.2943429e-001 -6.0029539e-001  6.0064555e-001  2.9608454e-001 -6.1074411e-002  2.3439508e-001  2.6922120e-001 -3.4036393e-001  3.0335393e-001 -3.0809091e-001  4.2279380e-001 -6.2954996e-001  5.7148723e-001 -6.9363557e-001 -2.1226067e-001  1.6601324e-001  3.2355703e-002 -2.9408556e-001  4.3881501e-001  3.0799264e-001 -3.6502555e-001  3.3313231e-001 -6.4291951e-001  5.7285345e-001 -3.3081100e-001 -4.2736604e-001 -3.9169369e-001  2.7538032e-001 -7.1262562e-002 -5.7540657e-001  2.8772800e-001  3.6211180e-001  2.9114265e-001  4.6523198e-001 -5.9236523e-001 -1.1874055e-002 -1.7454528e-001  5.6825241e-001 -1.9634425e-001  4.9487105e-001  4.7410636e-001 -3.1790600e-001 -4.5002622e-001  3.0951209e-001  8.2856493e-002 -3.3443763e-001 -3.2273117e-001  7.5650782e-002 -5.3570654e-001  5.4059565e-001  5.3893789e-001 -1.8805116e-001 -4.7571685e-001 -3.6029720e-001 -4.6397784e-001
 -6.3958526e+000 -5.6144654e-001 -4.1485934e-001 -4.0168853e-001 -2.9182497e-001  2.9616709e-001 -1.0330107e-002 -5.3772904e-001 -6.4484881e-001  3.1085949e-001  3.3397017e-002 -4.4786068e-002  6.4495726e-001  6.7907453e-001  3.1741757e-001 -2.9190788e-001 -5.7371400e-001  2.8317573e-001  5.9996748e-001 -6.8436723e-001 -1.8199314e-001  1.9356823e-001 -5.5859788e-002 -2.3202691e-001  3.1635420e-001 -5.5835124e-001  3.4253047e-001  2.5660806e-001 -6.2630730e-001 -4.5525292e-001 -3.2026976e-001  3.9898772e-001 -2.7744041e-001  2.1907918e-002 -1.9947583e-001  3.0226558e-001  3.0936141e-001  3.8125252e-001  4.2135729e-001 -6.3581535e-002  5.9281979e-001 -2.9036679e-001  2.8621579e-001 -7.0962973e-001 -4.2263434e-001  2.3692469e-001  4.5903000e-001 -2.5063600e-001  3.7114102e-001  2.9985934e-001  3.9561620e-001 -4.1995143e-001  5.4400235e-001  4.1840733e-001 -5.5020027e-001 -5.1767977e-001  2.4805177e-001 -4.9142820e-001 -5.2687591e-001 -3.0145961e-001 -5.7196773e-002
 -6.8501683e+000  5.2690251e-001 -4.0711042e-001 -2.0924034e-001 -3.0858416e-001  3.2038083e-001  2.3281281e-001 -5.2648721e-001 -6.9641340e-001  2.7172623e-001 -2.9076577e-001  3.5078100e-001  2.3657843e-001 -4.3714567e-001  4.1220843e-001 -3.3257806e-001 -6.9602048e-001  2.8286798e-001 -5.8981143e-001 -2.1028220e-001 -4.8590594e-001  4.3020887e-001 -1.3119186e-001 -2.1373712e-001  2.9130920e-001  4.5955490e-001  5.1360562e-001  2.9985924e-001  6.7277005e-001 -4.9238473e-001 -2.7976548e-001  2.7397107e-001  3.8852734e-001  2.7075600e-001 -2.6175227e-001 -4.7748111e-001  2.2967512e-001 -7.1176447e-001 -3.0170962e-001  5.9962827e-001 -6.7856331e-001  3.2623375e-002  4.1688427e-001 -3.4348183e-001 -1.9856934e-001  1.8377513e-001  4.2109623e-001 -3.8775482e-001  4.8394883e-001  5.5804968e-001  1.0559826e-002 -2.6981014e-001 -5.2741228e-001  9.6656819e-002 -5.1059593e-001  6.0150891e-001  5.2147760e-001  4.1451673e-002 -4.1880489e-001 -4.1931805e-002 -4.0856362e-001
 -8.1486222e+000 -6.2786952e-001 -1.2474716e-001 -5.5209172e-001 -1.1208060e-001  1.3609050e-001  2.8818705e-001 -1.3190602e-001 -2.7863980e-001  5.2795236e-001 -6.7963596e-001 -2.9783178e-001  2.0443781e-001 -2.6786217e-001  5.7473386e-001 -2.6163722e-001 -6.7257718e-001  3.5456101e-001 -3.0349208e-001  2.8942735e-001  2.4862873e-001  6.1592103e-001  3.7901975e-001  2.4066233e-001  1.0681281e-001 -2.2241195e-001  4.2522468e-001  3.0883969e-001 -2.9583706e-001  2.4841425e-001 -3.3874248e-001  1.8527617e-001  2.9277487e-001  2.7825263e-001  4.8719343e-001 -6.0390466e-001  9.1656890e-002  3.8250422e-001  3.7258040e-001 -2.6954948e-001 -4.7927153e-001  2.9567864e-001  3.1126564e-001  3.7633147e-001  4.7658059e-001 -4.5010456e-001  1.7158483e-001  3.6995004e-001 -4.6998307e-001  6.3606630e-001  3.3526134e-001 -2.8732383e-001  2.5810305e-001 -2.4570839e-001 -5.9500424e-001 -3.9917894e-001 -2.6836179e-001  3.0181324e-001  4.4235711e-001 -4.1446155e-001 -2.9530054e-001
 -8.1013646e+000  4.5273972e-001 -1.1985196e-001  6.3176354e-001 -1.0929717e-001  3.1854627e-001  3.2359853e-001 -2.2467568e-001 -5.0078715e-001 -5.8116446e-001  5.9407842e-001 -3.4405709e-001  2.1537593e-001 -2.4860828e-001 -6.9664848e-001 -4.1948344e-001  6.6447890e-001  2.4338830e-001 -2.1397139e-001  9.6466846e-002  2.1268226e-001 -5.9129741e-001  2.5022679e-001  1.8536247e-001  8.2363869e-002 -1.7818778e-001  4.8575024e-001  4.0173036e-001 -2.8492016e-001  2.9068932e-001 -4.1296354e-001  1.3399903e-001  2.6754214e-001  3.4440942e-001 -8.7165990e-001  4.9206034e-001  1.1015237e-001  3.2502551e-001  3.9907494e-001 -1.0131565e-001 -4.4402702e-001  2.8781036e-001  2.1103720e-001  1.7992281e-001  3.5295971e-001 -3.2828617e-001  3.5713722e-001  3.3832030e-001 -4.0555437e-001 -4.3651223e-001  3.0584726e-001 -3.7038821e-001  2.6972379e-001 -2.2655445e-001  5.4737884e-001 -4.3671625e-001 -1.0812393e-001  2.0872077e-001  2.4546542e-001 -4.9766855e-001 -3.9511058e-001
 -6.5918310e+000 -8.5416333e-001 -3.1339625e-001  2.4343177e-001 -3.7258068e-001  2.9841129e-001 -2.7773566e-001 -2.4590925e-001 -2.7361459e-001 -3.5164074e-001  6.7399857e-002 -3.2342494e-001 -1.0421560e+000 -4.5257471e-001 -2.9706194e-001  4.3106103e-001 -4.2852606e-001 -8.2429026e-001 -4.7110137e-001  2.7720882e-001  2.7698157e-001 -3.3000468e-001 -2.5429076e-002  1.4965579e-001  3.2361842e-001 -3.0001147e-001 -3.0348015e-002 -2.4925456e-001  6.2438871e-001  3.0373244e-001  3.1678664e-001  2.6983461e-001  2.6189321e-001 -4.1178120e-001  2.2077014e-001 -5.7434202e-001  4.5790910e-001 -1.0079429e-002  3.4545929e-001 -4.0275438e-001 -6.3755373e-001  2.4902105e-001  3.5971647e-001  2.3941727e-001  1.8467785e-001 -3.2371365e-001  2.5028657e-001  2.0265896e-001 -6.6572906e-001 -4.5571469e-001 -2.8709143e-002  6.3460512e-001  5.8667520e-001  2.2950763e-001  5.6791633e-001 -5.7696922e-001 -2.7753272e-001  3.0337281e-001  2.7515142e-001  3.6867901e-001  3.2020419e-001
 -8.1938322e+000  4.7547247e-001 -6.2419129e-001  3.4977233e-001 -5.0584522e-001  2.4548354e-001 -5.7277217e-001 -2.6579834e-001 -6.4277749e-001 -3.9042049e-001 -4.0669707e-001 -2.7666338e-001  5.3777703e-001 -5.4043625e-002 -3.7851525e-001  4.0390101e-001 -5.3642489e-001  4.4143450e-001 -2.3655493e-001  2.6700695e-001 -7.0360369e-003 -3.1082834e-001  5.7229480e-002  1.7300979e-001  3.0491815e-001 -3.1486031e-001  6.5290945e-002 -4.3318881e-001 -7.8515922e-001  2.2641587e-001  4.4496157e-001  2.0295452e-001  1.9358379e-001 -2.2446244e-001  3.7398023e-001  7.4644000e-001  4.4758963e-001 -4.7731223e-002  1.9280730e-001 -3.3212530e-001 -4.3677774e-001  3.0498968e-001  3.9415892e-001  5.6506708e-001  2.5600478e-001 -3.2023684e-001  3.4923777e-001  9.5341584e-002  7.2108102e-001 -2.9608595e-001  5.4956701e-001  7.0440416e-001 -8.9682854e-001 -1.5998062e-001 -7.9511033e-001  1.3999939e-001 -2.3262381e-001  2.5505424e-001  2.2478072e-001  1.1430762e-001  4.4692696e-001
 -7.5443169e+000  2.9246228e-001 -1.9059162e-001 -2.9235408e-001 -2.6060613e-001  2.4079220e-001  2.0283456e-001 -1.5393533e-001 -5.1018674e-001  2.7506698e-001  3.6847695e-001 -4.9594245e-001  1.1980997e-001 -2.5527706e-001  1.5967240e-001 -2.2469394e-001  3.8133461e-001 -7.1448487e-001 -1.8155901e-001  2.3508854e-001  2.6145977e-001  4.6479921e-001  2.9777236e-001  2.1599243e-001  1.2111331e-001 -3.2416929e-001 -3.7910146e-001  2.7648537e-001 -4.0703539e-001  3.7538956e-001 -2.7927672e-001  2.1125587e-001  3.2388352e-001  2.6409455e-001  2.7137371e-001 -4.5182952e-001  2.6554895e-001 -5.9042964e-001 -3.0978924e-001 -3.6533674e-001  3.8722765e-001  2.2871899e-001 -5.9391540e-001 -6.3573868e-001 -5.0633959e-001  5.7691059e-001  3.8271909e-001  4.5040205e-001  4.4074708e-001  5.8659118e-001  3.5703309e-001 -1.2278649e-001  3.2086383e-001 -3.4236132e-001 -5.2634369e-001  3.7063444e-001 -3.2938684e-001  2.6491883e-001 -5.2733613e-001  4.5812047e-001 -2.9862352e-001
 -9.1315733e+000  2.9252022e-001 -1.4761972e-001 -3.8646125e-001 -2.0743064e-001  3.5363181e-001  2.7837017e-001 -3.5873305e-001  5.7530933e-001  3.8092107e-001  2.7660063e-001 -4.2443525e-001  1.6087477e-001 -2.6504197e-001  3.3435051e-001 -1.8385235e-001  1.5613891e-001  4.2445948e-001 -2.3377292e-001  7.8564959e-002  2.8391281e-001 -5.5268158e-001  3.4857324e-001  2.5117963e-001  9.6584165e-002 -3.1351573e-001 -4.5110408e-001  2.9264224e-001 -3.7073267e-001  3.1289006e-001 -3.0326430e-001  2.3724630e-001  3.3016052e-001  2.8904946e-001  4.3075388e-001  4.8134941e-001  2.4489723e-001  4.4388924e-001 -4.1913822e-001 -1.2056146e-001  4.6435800e-001 -6.3877761e-001  4.8095493e-001  3.9935630e-001 -5.2251365e-001 -5.2921059e-001 -6.6806646e-001  4.2913328e-001  4.6199396e-001 -4.4331804e-001 -6.4019686e-001 -1.0822828e-001  3.1319129e-001 -3.0453624e-001  3.7999375e-001  4.0832951e-001 -1.1734391e-001  2.7066739e-001  4.1070500e-001  5.5380706e-001 -3.0082436e-001
 -7.4513633e+000 -5.4698463e-001 -4.3698818e-001  3.4830888e-001  3.7547158e-001  2.9286514e-001 -1.5996577e-001 -2.6557993e-001 -6.8872458e-001  5.7887596e-001  1.3784954e-001 -3.4939254e-001  6.0488015e-001  2.9251094e-001  3.8650386e-001 -6.9227055e-001  4.5454612e-001 -4.4992800e-001 -2.3535732e-001  2.3917196e-001  1.9418780e-001 -4.4503639e-001 -5.8720875e-002  1.3526394e-001  3.1802740e-001 -3.1231261e-001 -3.4389925e-001 -4.2825534e-001  5.9990150e-001  2.5650598e-001  4.8460985e-001  2.4950500e-001  2.1012138e-001 -4.6903952e-001  1.8386335e-001 -5.0185976e-001 -6.3340980e-001 -4.0740189e-001 -4.2108365e-001 -3.0991108e-001  2.5817076e-001 -4.7423361e-002 -5.1769141e-001  5.0230811e-001  4.3621354e-001 -4.0080384e-001  5.1164348e-002  2.5296959e-001  5.5093396e-001 -3.7453091e-001 -4.1133517e-001 -6.0305384e-001  5.2350089e-001  3.0143882e-003  5.0746074e-001  5.7586941e-001 -3.3648284e-001  3.5081374e-002  1.0489151e-001  2.2478294e-001  4.3394000e-001
 -7.9421054e+000  5.3993455e-001  6.5768589e-001 -1.7667703e-002  5.3662338e-001  3.1604901e-001 -3.5231411e-001 -3.2620421e-001  6.1162304e-001 -2.3690761e-001  3.6183992e-002 -3.7876251e-001  1.8758034e-001  4.5324110e-001  4.2554641e-001  4.7243848e-001  5.2158105e-001 -5.9402784e-001 -2.8548267e-001  2.6039180e-001  3.5584810e-001 -4.1478621e-001  9.1285671e-002  1.8728159e-001  3.7544775e-001 -3.3792147e-001 -3.9217992e-001 -3.6262742e-001 -5.7786558e-001  3.2431812e-001  3.6542633e-001  2.5086294e-001  2.5707717e-001 -1.2309886e-001  2.3299099e-001  4.8413350e-001 -4.7949467e-001 -3.3143636e-001  4.7909616e-001 -4.3081446e-001  7.1895634e-001 -7.3694131e-002 -4.6553177e-001 -7.1845642e-001  3.6967200e-001 -4.0869091e-001 -6.8314997e-002  1.9096466e-001  4.0308520e-001 -1.8477874e-001  1.0543119e-001 -6.4467485e-001 -6.4711424e-001 -2.7684537e-001 -4.6527800e-001 -2.7748202e-001 -3.9692914e-001  9.2632375e-002  3.7935421e-001  3.6749456e-001  2.8590990e-001
 -7.9073521e+000  4.9237345e-001 -2.6234750e-001  4.0620746e-002 -2.1647667e-001 -6.2023307e-001  1.9799490e-001  4.7992734e-001  1.0612344e-001  2.5984597e-001  3.4302227e-001  2.8274140e-001  3.9161364e-001 -4.3184594e-001  1.5242729e-001 -2.5899944e-001  1.2429209e-001  4.8354679e-001  6.1720031e-001  4.5794101e-001 -1.6658329e-001  4.6085391e-001 -1.5874927e-001 -2.8850062e-001  3.6702362e-001  4.7013368e-001 -4.9215494e-001  2.3801338e-001 -5.9942162e-001  7.0283959e-001 -2.2997197e-001 -6.4606581e-001 -4.6860850e-001  2.1946798e-001 -3.9081680e-001  6.6608155e-001  2.7558807e-001  2.3140157e-001 -7.0570581e-002 -5.5772381e-001 -6.3829973e-001 -4.7657741e-002  3.7821899e-001  4.8426832e-001 -2.1257893e-001 -4.0253753e-001 -4.5846153e-001 -2.7370212e-001 -6.3183247e-001  6.7581971e-001 -3.0848141e-001 -2.0060607e-001 -5.1491363e-001  6.6059921e-003  5.7725993e-001  5.7338786e-001 -4.2129149e-001 -2.4292939e-001  4.6290361e-001 -3.7109047e-001 -3.5865168e-001
 -5.2832408e+000 -2.9508482e-001 -6.5432862e-001 -4.3152014e-001 -5.8938499e-001  1.7861270e-001 -5.9932133e-001  4.8627895e-001  3.9490651e-001 -3.8687259e-001 -2.4107296e-001  1.9084071e-002 -4.9835342e-001  3.9240445e-001 -6.0728944e-001 -6.2860240e-001  6.0913474e-001 -3.8877291e-001 -2.4989346e-001 -5.7855440e-001 -3.8108797e-001  5.4631306e-001  3.8011013e-001 -5.5326856e-001 -4.2803900e-001  2.8307004e-001  1.4828491e-001 -5.4414501e-001  3.6140875e-001  3.1247158e-001  6.1016808e-001 -3.6986459e-001  3.7041179e-001 -7.2579808e-001  2.5064288e-001 -3.9817579e-001  6.5883941e-001  4.9286054e-001 -3.9858782e-001  4.8154888e-001  3.3254680e-001  3.6588454e-001  9.5412255e-002  3.2872859e-001 -4.9133484e-001 -8.9441994e-001  5.6047694e-001 -5.5870691e-001 -3.9116916e-001 -7.7716809e-002  6.9012205e-002  6.0635286e-001 -3.8392933e-001  3.5529735e-001  3.9058838e-001  4.8375352e-001 -2.8592078e-001 -8.3857323e-001  2.6570413e-001 -3.1205523e-001  3.4302021e-001
 -8.7730228e+000 -4.3860472e-001  4.3023674e-001 -3.4329446e-001  6.0596449e-001  1.3887478e-001 -2.9028984e-001  6.5814238e-001  1.4008594e-001  3.3767366e-001  2.4686145e-001  3.1375231e-003  3.9410267e-001  4.1404316e-001 -7.3629348e-001  4.3738915e-001  8.4257498e-001  1.0042115e-001  4.7440549e-001 -4.4127376e-001 -3.6801666e-001 -1.7531627e-001  4.0430691e-001  7.1535293e-001 -4.1579483e-001  2.1524765e-001  1.3758308e-001 -4.8246245e-001 -6.2709381e-001  3.2170858e-001 -4.5054703e-001 -3.8385871e-001  1.8625803e-001  8.0809079e-001  2.4762940e-001  4.7967760e-001  5.0626557e-001  6.0308095e-001  4.1888725e-001  5.0745634e-001 -4.0338366e-001  3.4245835e-001  3.0272207e-001  4.2124921e-001 -6.6592849e-001 -9.1205562e-001  2.9623577e-001  6.3721038e-001 -4.1055661e-001  1.6822520e-001 -3.1945062e-001  4.8221469e-001 -2.8258779e-001  5.6947835e-001 -4.2473753e-001 -1.8055729e-001 -3.3920068e-001 -8.1905629e-001 -5.1158991e-001 -3.5774747e-001  3.4510277e-001
 -9.0600238e+000 -3.0652521e-001 -5.4267240e-001  4.7527356e-001  8.4769690e-001 -7.1352625e-001  8.5116377e-001 -2.8106895e-001  3.4190486e-001  1.8022534e-001  3.9024063e-001  5.6829389e-001 -5.5540286e-001  2.9483582e-001 -2.7624833e-001 -5.8123258e-001 -2.6846577e-001 -3.9360061e-001  6.6480289e-001  2.5354025e-001 -4.2282575e-001 -3.1157139e-001 -3.3273226e-001 -3.7526034e-001 -4.7268962e-001  2.8033582e-001 -4.4263834e-001  5.1062370e-001  3.4230256e-001  2.7382285e-001 -4.4137543e-001 -3.3110456e-001 -1.1062942e-001 -4.6656764e-001  7.1744271e-001 -3.2149952e-001  1.3245984e-001  6.3450409e-001  3.9281303e-001  5.0985590e-001  2.4928701e-001  7.4044043e-001 -7.2703653e-001  3.4157282e-001  2.9624059e-001 -2.0720335e-001  2.3616961e-001  2.6434529e-001 -2.9514702e-001  8.6381615e-001 -6.9248982e-001 -3.2093461e-001 -4.0372844e-001 -1.6647078e-001  4.1176514e-001  3.7990834e-001  3.0461933e-001  7.6967076e-001  6.8945687e-001  4.9464093e-001  3.5543240e-001
 -6.9353047e+000 -4.3269667e-001  3.9843275e-001 -6.5710353e-001  6.0210603e-001 -6.3871140e-001 -9.7064148e-001 -3.4292000e-001  1.3660495e-001 -1.1412268e-001  5.7249290e-001  5.0576463e-001  4.3779131e-001 -3.8944308e-001 -2.3658768e-001  3.8362928e-001 -3.4115004e-001 -6.4573309e-001  4.3268438e-001  1.3004217e-001  2.2176876e-001  6.0793576e-001 -5.5306382e-001 -6.5221044e-001 -4.3816852e-001  3.1973088e-001 -4.2399174e-001  2.7734920e-001 -5.5397037e-001  2.6722802e-001  7.0995821e-001 -3.9041004e-001 -7.8788472e-002 -6.1990940e-001  7.3425116e-001  4.6118644e-001  2.7030059e-001  5.7088412e-001  2.1703553e-001  5.0259080e-001 -4.6109398e-001  6.8227261e-001 -6.7853127e-001  4.7467813e-001  3.2230345e-001 -1.3243754e-001 -4.1146805e-001 -1.9326455e-001 -3.4580551e-001 -5.8324742e-001  7.3445769e-001 -2.7562404e-001 -3.7358748e-001  2.5093667e-001 -3.6082278e-001 -2.4834097e-001  2.7850600e-001  6.0193846e-001 -7.9385817e-002  1.1642300e-001  3.1958341e-001
 -4.4707481e+000 -5.0167959e-001  3.5246672e-001  3.7563323e-001 -2.9320275e-001 -6.1564696e-001  2.8116200e-001 -2.4954172e-001  1.5150802e-001 -4.7087262e-001 -2.9708066e-001 -3.6876286e-001  4.3927615e-001  6.3271650e-001  6.7173077e-001  3.5914890e-001 -1.7308155e-001 -6.3223394e-001  4.0069460e-001  4.7370116e-002 -8.0564773e-001  5.4844445e-001  6.8303060e-001  4.1504844e-001 -3.4913941e-001  4.1354247e-001 -7.3688372e-002  3.0544658e-001 -4.4742205e-001  3.2874697e-001  5.7558124e-001 -4.3368617e-001 -5.6145678e-001  3.8182672e-001 -3.0560855e-001  3.8850095e-001 -6.4118950e-001 -5.6823837e-001  1.4874334e-003 -2.3828564e-001 -4.1500400e-001 -2.4014298e-001 -7.1608911e-001  4.8078894e-001  2.5029128e-001 -1.8172492e-001  4.5200104e-001 -1.8303079e-001 -5.1547109e-001 -4.7921903e-001 -2.5237671e-001 -2.4611585e-001 -3.7273996e-001 -8.4556363e-001 -3.5329681e-001 -1.2197854e-001 -4.6341223e-001 -4.7139718e-001  7.2278022e-001 -8.2915256e-001  3.8557043e-001
 -4.5116748e+000 -3.0814036e-001 -5.2304818e-001  5.9938284e-002 -2.4336890e-001 -6.4388164e-001 -3.0252772e-001 -2.3936755e-001  4.6211363e-001  8.6943601e-002 -7.3496567e-001 -4.9093133e-001 -5.8401279e-001 -7.0369771e-001  6.1572566e-001 -4.5970970e-001 -1.5927858e-001 -4.1151302e-001  6.6731231e-001  1.2432317e-001  8.4621175e-001 -1.9348716e-001  6.6807882e-001  5.1337477e-001 -4.6088909e-001  3.3261471e-001  1.8591890e-002  2.4819482e-001  4.3591770e-001  3.3217925e-001 -2.6936404e-001 -4.2472464e-001 -4.7956093e-001  4.8060428e-001 -2.7619090e-001 -3.7695348e-001 -7.6164246e-001 -5.8599295e-001  4.0271293e-001 -2.0525568e-001  3.1175999e-001 -2.6068611e-001 -6.4706823e-001  3.5883892e-001  1.9858368e-001 -4.1552403e-001 -6.2358837e-001  1.9679429e-001 -4.0770935e-001  6.3346292e-001  3.3234099e-001 -1.6544566e-001 -3.9921118e-001  7.3677539e-001  4.5686608e-001  4.4206504e-001 -4.3068203e-001 -4.1183617e-001 -4.3761048e-001 -6.1260626e-001  5.1445379e-001
 -6.7898156e+000 -4.4560096e-001  3.8488968e-001  7.7163642e-001  3.7235779e-002  1.7876379e-001  4.2015253e-001  5.5017018e-001  1.0928587e-001 -7.5858362e-001 -7.9250134e-001  2.8032874e-001  4.0852832e-001 -4.8334839e-001  4.8171335e-001  3.7933136e-001  7.2621513e-001  1.4978214e-001  4.9086571e-001 -5.5723039e-001  5.3964855e-001 -2.4950435e-001 -6.3131951e-001 -2.6508158e-001  4.3770822e-002  2.2097669e-001 -6.2016051e-001 -4.9229829e-001 -6.2417781e-001  3.0515790e-001 -3.5168261e-001 -3.3899240e-001 -6.1859785e-001 -3.3632698e-001 -3.9864913e-001  4.4021174e-001 -4.7101260e-001 -4.5469659e-002  4.4731161e-001 -1.6258906e-001 -3.7845209e-001 -5.8005934e-001  1.8508719e-001  4.6670415e-001 -5.7350165e-001  3.0285112e-001 -7.0588244e-001  6.0062728e-001 -4.3457913e-001  3.2889185e-001  3.2837166e-001  4.5567996e-001 -2.4802231e-001 -2.8973352e-001 -3.8390734e-001 -3.0425471e-001  7.2155917e-001  1.5225437e-001  4.2947095e-001  5.8615112e-001  2.6535756e-001
 -7.5702706e+000 -1.8940363e-001 -5.1434527e-001  7.3629986e-001  4.1554512e-001  2.0569671e-001  2.6856239e-001  4.9592924e-001  4.2837846e-001  6.8765394e-001  8.0709444e-001  2.0107580e-001 -4.0929172e-001 -3.8784663e-001  4.3846685e-001 -4.6216448e-001  5.4368805e-001 -3.4041604e-001 -9.2554123e-002 -6.3874170e-001  3.2954625e-001  5.6513266e-001 -7.4639832e-001  3.1985739e-001  6.5611837e-002  1.6830713e-001 -5.5251319e-001 -6.1513369e-001  2.9454441e-001  2.8242715e-001  6.8403393e-001 -3.1485710e-001 -6.2901198e-001  1.3503196e-001 -3.8969761e-001 -2.7691111e-001 -5.2856386e-001 -9.8237818e-002 -2.3932603e-001 -1.8118494e-001  2.1952569e-001 -6.2821567e-001  3.1656837e-001  3.9395859e-001 -5.1597301e-001  4.1305310e-001 -3.1615431e-001 -6.4571112e-001 -3.7734705e-001 -1.6787673e-001 -4.4551906e-001  5.6915024e-001 -2.4589908e-001 -6.3231638e-001  3.7837751e-001  3.3864370e-001  6.5422056e-001  7.7569264e-002 -6.9194293e-001  5.3286797e-001  3.5816952e-001
 -8.9164009e+000  5.3274942e-001 -4.8165857e-001 -5.9398139e-002 -3.3808193e-001 -2.5112143e-001  8.2191581e-002  4.9487637e-001  5.4995406e-001  2.1191583e-001  3.4258092e-001 -1.5267872e-001 -9.1310709e-001  6.5631771e-001 -8.7170794e-002 -2.6024587e-001  7.2795156e-001  2.0281361e-001  4.6648173e-001  5.5280766e-001 -2.0214652e-001  2.9668100e-001 -1.0671231e-001 -3.8555552e-001  3.8807650e-001 -6.0003704e-001  4.7977044e-001  2.9433222e-001 -5.4996400e-001 -5.7290516e-001 -3.6854499e-001  3.8473414e-001 -7.2281543e-002  8.7547538e-002 -3.7492982e-001  1.6045473e-001  3.7029693e-001  2.3391316e-001  5.9958778e-002 -3.2343509e-001  5.4663725e-001 -3.5935753e-001  2.7447202e-001  5.8996755e-001 -3.5694306e-001  3.9237020e-001 -4.4378563e-001 -1.9830131e-001  4.9156317e-001  4.2982003e-001  8.3025393e-002 -4.2958492e-001  5.3023978e-001  3.3000053e-001  4.6588399e-001 -6.4035738e-001 -3.1344279e-001 -4.3692968e-001  5.2179110e-001 -3.3669873e-001 -4.8790809e-002
 -8.4242865e+000 -4.5450855e-001  4.2936057e-001  2.9059804e-002 -5.2038540e-001  4.9638206e-001  6.2456581e-001 -1.4148624e-001 -5.3944516e-001  6.5114007e-001 -6.0147701e-001  2.5555551e-001 -3.2926455e-001  2.5445796e-001  1.6941682e-001 -4.9909314e-001 -2.6672806e-001  3.3738532e-001  4.5882491e-001 -4.9831283e-001  6.1277330e-001  6.4894152e-001  3.0869621e-001 -3.0293317e-001 -7.0408585e-001 -5.9209390e-001 -4.3197739e-001  5.6219250e-001  4.7249631e-001  5.1120464e-001  5.8234611e-001 -2.4874318e-001  3.5454878e-001 -6.0091325e-001 -2.5981587e-001  2.2373508e-001 -6.5788916e-001 -2.5928955e-001 -5.0116592e-001 -7.9065846e-001  3.9457323e-001  5.7334115e-001  4.3744493e-001  4.9342552e-001  6.4788016e-001  6.2719770e-001  4.0846948e-001 -3.5129903e-001  3.4468281e-001 -9.6592688e-002  2.0372841e-001  4.2579858e-001  3.2974398e-001  8.2734149e-002  4.7370659e-001 -3.8400472e-001  5.7298303e-001 -6.4986611e-001  2.2394558e-001 -1.2684444e-001 -3.6926816e-001
 -5.9573216e+000  4.3590912e-001  2.0893863e-001  2.1517829e-001  5.4277996e-001  4.5166786e-001 -4.5868960e-001 -3.0072722e-001  4.0749694e-001 -7.0478928e-001 -4.4244655e-001  2.5065738e-001 -5.6245027e-001  1.9844125e-001  7.8898561e-002  4.1477936e-001 -2.6243893e-001 -6.8927568e-002  3.6675033e-001 -5.9386473e-001 -5.8619202e-001 -4.1915404e-001  4.4338413e-002  5.0680744e-001 -5.4643283e-001 -8.4321095e-001 -5.1079690e-001  5.2200452e-001 -5.6424233e-001  7.3923291e-001 -4.3886100e-001 -3.7878229e-001  4.0749184e-001  7.4236192e-001 -3.7953860e-001  3.6535727e-001 -4.4842905e-001 -3.0103057e-001  2.9658893e-001 -5.9461927e-001 -4.4711669e-001  4.4368465e-001  6.5382486e-001 -5.0871339e-001  7.2754815e-001  5.0120115e-001  3.0099710e-001 -7.0979522e-001  3.5881725e-001  3.0147544e-001 -2.5992156e-001  3.1291925e-001  4.0483166e-001  2.4023671e-001 -4.1517816e-001  1.0716276e-001  3.8125095e-001 -5.9643182e-001 -4.0112492e-001 -4.7931294e-001 -4.7981754e-001
 -6.2365195e+000 -5.2631489e-001  3.2677022e-001 -3.5631495e-001  8.2536545e-001 -8.8278809e-001  8.1756458e-002  5.2465461e-001 -6.3578736e-001  1.8044964e-001 -1.7526109e-002  4.3631062e-001 -2.2570006e-001  3.8823522e-001  6.1252919e-001 -6.5287875e-001 -2.9773467e-001 -4.1616018e-001 -1.3574176e-001  6.2995563e-002 -3.6833326e-001 -4.6047491e-001 -3.0856469e-001 -5.3889353e-001 -5.3550856e-001 -3.9257574e-002  5.3789272e-001 -3.2555719e-001  4.3977608e-001 -6.0118402e-003 -3.5121060e-001  5.8485917e-001  5.3522590e-001 -6.6610833e-001 -6.4935896e-001  1.9288899e-001  2.1136895e-001 -6.1347843e-001  6.8683817e-001  4.6019633e-001  4.0427178e-001 -9.6496739e-001 -2.6737201e-001  6.5319783e-001 -2.1247773e-002  2.4456536e-001  2.4110769e-001 -3.9259445e-001  2.5356264e-001  7.8236323e-001 -3.9982816e-001  3.8150480e-001  5.2257408e-001 -4.2048687e-001  4.2359754e-001 -4.9060065e-001 -2.2884544e-001 -5.1992934e-001  4.9443557e-001  6.0607757e-001 -5.1716309e-001
 -6.9926272e+000  3.9201253e-001  1.6607846e-001 -3.0137208e-001  5.3249377e-001 -6.0801455e-001  4.1843872e-001  6.1205461e-001  3.5379269e-001 -4.9439928e-001  3.6820222e-001  4.4865573e-001 -6.1411535e-001  3.6779998e-001  7.8257630e-001  3.6432564e-001 -2.7260160e-001  4.5531191e-001  5.8466335e-001  2.0161977e-001 -1.9334423e-001  7.4218943e-001 -4.0649257e-001 -4.6520792e-001 -5.9652563e-001 -3.0477639e-001  4.8582219e-001 -3.0692042e-001 -7.3862283e-001  2.6996823e-001  5.9952740e-001  6.5265821e-001  3.9668813e-001 -7.6191774e-001 -4.2810223e-001 -2.6529200e-002  4.2490049e-001 -5.8050530e-001  3.0345065e-001  3.7565080e-001 -4.3407402e-001 -9.7873458e-001 -3.4495282e-001 -4.5440210e-001 -2.0778872e-001  3.7171102e-001 -3.7264054e-001  2.3962469e-001  2.7974454e-001 -7.4774604e-001  5.4599359e-001  2.7179580e-001  5.7794070e-001 -3.5639498e-001 -4.4582677e-001 -1.8953248e-002 -2.5956493e-001 -5.6156270e-001 -4.3032162e-001  2.6026866e-001 -6.4575375e-001
 -6.8039324e+000  3.8634252e-001  2.4877085e-001  6.7464623e-001 -3.9554498e-001 -4.4868088e-001 -5.6079150e-001  5.7865219e-001  3.5978582e-001 -4.5823044e-002 -7.8941518e-001 -5.0152738e-001 -5.0546281e-001  2.2797021e-001 -4.4890937e-001  3.6347493e-001 -3.3530801e-001  4.2139396e-001  4.3846460e-001  1.5060635e-001  3.0515040e-001  6.9301408e-001  7.3196140e-001 -1.7575033e-001  3.4710609e-002 -3.9747190e-001  5.3535582e-002 -4.2749840e-001 -4.8958415e-001 -8.0838149e-001  5.1285508e-001  4.5244327e-001 -8.6776868e-001  2.2096215e-001  9.7680993e-002  1.6528231e-002 -6.6627207e-001  5.1017995e-001  2.6775400e-001 -3.5313520e-001 -3.7832762e-001  2.6537303e-001 -2.9659798e-001 -5.2450616e-001 -3.2443784e-001 -8.7567069e-002  5.3147769e-001  2.1556994e-001  3.4781267e-001 -6.5791403e-001  1.3866097e-001  2.4717651e-001  4.0519440e-001  7.8353069e-001 -4.1919145e-001  1.1829226e-001  1.2760606e-001  4.9467868e-002  8.0588837e-001 -7.3289458e-001 -5.1724178e-001
 -5.8253430e+000 -4.8621989e-001  4.9678985e-001  5.4961354e-001 -3.9541162e-001 -2.9124910e-001 -6.6162005e-001  5.5995470e-001 -6.1551966e-001  2.3256308e-001  6.3855929e-001 -4.6547212e-001 -2.5921666e-001  2.8567861e-001 -4.6803770e-001 -4.3158760e-001 -4.1475018e-001 -6.4310874e-001 -3.3452741e-001  2.3827774e-001  2.0313792e-001 -3.0339468e-001  5.7161028e-001  4.9737477e-001 -9.0144043e-002 -7.4171932e-001 -9.8489716e-002 -6.5426698e-001  4.9933642e-001 -6.2236514e-001 -4.0086049e-001  4.7863606e-001 -9.6960340e-001  4.7835495e-001  2.8088906e-001  3.1156116e-001 -5.6641868e-001  3.6769487e-001  6.4439899e-001 -2.7749015e-001  3.8277456e-001  2.4726661e-001 -3.8554975e-001  4.2213094e-001 -2.9939528e-001 -3.6246632e-003 -6.3406581e-001 -3.9137434e-001  3.3002533e-001  6.8760751e-001  6.0023296e-001  3.8371268e-001  3.4025629e-001  3.8542633e-001  4.1432519e-001 -3.8759572e-001  1.6430548e-001  8.0849817e-002 -3.4337733e-001 -6.4570675e-001 -3.8361087e-001
 -5.5577902e+000  4.2239099e-001  3.2953844e-001 -5.0903105e-001  1.1790660e-001  4.6212614e-001 -1.7530887e-001 -2.8815051e-001  4.7875992e-001  2.9034507e-001  6.1365880e-001 -7.6872981e-001 -5.2605027e-001  2.9141053e-001 -6.3322275e-001  5.7767060e-001 -2.6688047e-001  9.4301811e-002  3.5104394e-001 -5.0533404e-001 -2.0018308e-001 -3.5897934e-001 -5.6769344e-001 -5.5544849e-001  2.1289011e-001  3.7359907e-001  4.6573267e-001  5.8564066e-001 -5.9126569e-001 -4.5195998e-001 -3.5160567e-001 -3.4653186e-001 -3.9248127e-001 -4.7273193e-001  2.2556462e-001  4.5000218e-001 -2.0546036e-001  6.5209043e-001  2.9725979e-001  4.8412266e-002 -5.2577979e-001 -3.7210425e-001  3.2863138e-001 -5.8077601e-001  5.9868744e-001 -4.6146221e-001 -6.7146364e-001 -7.5003808e-001  2.3543566e-001  3.0467199e-001  6.9949994e-001  3.7378895e-001  3.6611994e-001 -6.9108803e-001 -5.2773779e-001 -4.6206900e-001 -2.8744763e-001  4.7621801e-001  3.8923369e-001  6.0013980e-001 -3.8302297e-001
 -7.0089768e+000 -4.9555202e-001  3.2853366e-001  4.1150452e-001  3.7645776e-001  4.7474112e-001 -2.5130285e-001 -3.4743770e-001 -6.1606757e-001 -3.3691862e-001  3.2966881e-001 -6.6481825e-001 -2.2159724e-001  2.9888014e-001 -6.4622433e-001 -6.1225191e-001 -2.4211701e-001  2.7963266e-001  4.4974767e-001 -4.7413107e-001 -5.1025826e-001  6.9955895e-001 -8.5349922e-001 -7.8629543e-002  4.1318075e-001  1.2702973e-001  4.9600936e-001  5.5944127e-001  4.4202268e-001 -3.5192165e-001  5.4099253e-001 -3.8648231e-001 -4.3312636e-001 -2.0540335e-002  1.9323553e-001  2.9106602e-001  9.8474793e-003  5.4920254e-001 -3.1442210e-001  2.1644311e-001  4.3225807e-001 -4.7406302e-001  4.1274672e-001  5.0736959e-001  5.2121068e-001 -5.2055753e-001 -1.8249542e-001 -3.6523480e-001  3.1792782e-001 -2.5761798e-001 -8.4892622e-001  2.9027494e-001  3.4509417e-001  5.2693603e-001  4.2971738e-001 -3.7844609e-001 -4.3681464e-001  5.6697202e-001 -6.9441005e-001  8.0028221e-001 -4.1862994e-001
 -7.2548379e+000  2.4293230e-001 -3.7020785e-001 -2.9872061e-001 -2.6715933e-001 -1.4200336e-001  2.3381159e-001  4.9611105e-001  4.2342630e-001  1.7313140e-001  7.4773137e-002  2.8843505e-001  3.4680342e-001 -3.8100272e-001 -5.0132569e-001 -3.6650577e-001  5.8723201e-001  2.3631598e-001 -5.1696967e-001  3.2986709e-001 -5.1868381e-001 -4.8473263e-001 -1.4580434e-001 -4.0494660e-001  3.1941850e-001  4.2204261e-001  6.9475446e-001  2.5042830e-001  7.2108157e-001 -5.8894868e-001 -2.5721783e-001  1.9765453e-001  5.5291775e-001  2.4019857e-001 -3.4359756e-001  9.4751457e-002  2.7581389e-001  5.3074723e-001 -4.7332952e-001 -4.6600677e-001 -6.0556980e-001 -5.6672760e-002  2.0202301e-001 -6.7672118e-001 -1.8871579e-001  5.7200569e-001 -3.5373478e-001 -4.2593876e-001  5.8682211e-001 -6.8963468e-001 -3.3583727e-001 -2.4000734e-001 -4.3927540e-001 -5.8356879e-002  6.2775722e-001  5.7211144e-001 -4.2581829e-001  2.4910723e-002  4.0080933e-001 -1.1469075e-001 -3.6583488e-001
 -7.2975756e+000 -4.2906433e-001  3.4502170e-001  6.3520374e-001 -6.2805951e-001  4.0634366e-001  5.1944198e-001  5.6745327e-001 -5.8688042e-001  7.3876541e-001 -4.4242245e-001 -6.4501777e-002 -4.7363227e-001  3.6589192e-001  3.4134973e-001  3.9087481e-001 -2.9849302e-001  8.0208647e-002 -3.5562651e-001 -4.4988450e-001 -3.6813253e-001  1.3732323e-001  2.8843123e-001 -5.5500487e-001 -4.7983444e-001  3.3590575e-001 -3.6074657e-001 -5.3222777e-001  1.3141860e-001 -8.4297692e-001  5.4412256e-001  2.7938749e-001  4.4821893e-002 -8.1877703e-001 -2.5058632e-001 -4.0765863e-001  6.0546655e-001 -4.2088656e-001 -7.3178514e-001  8.6118266e-002  3.5869060e-001  3.4524868e-001 -2.5015520e-001 -4.1481024e-001 -5.6625512e-001  6.2340344e-001  5.4093405e-001  6.3315927e-001  3.3877995e-001 -3.1163003e-001 -1.7170355e-002  5.0783133e-001 -3.8956371e-001  3.6419526e-001  4.2890723e-001  4.8533786e-001 -3.1887794e-001  7.9402233e-001  2.3505549e-001 -4.0035418e-001  3.2493665e-001
 -7.9243567e+000  5.1589596e-001  2.1346792e-001 -6.9131330e-001  4.3485512e-001  2.1936444e-001  5.8824512e-001  4.8171716e-001  3.5130682e-001 -6.7222921e-001 -3.2717185e-003 -7.7423153e-002  4.1247611e-001  4.1162639e-001  2.1438870e-001  2.0126521e-001 -4.0075443e-001 -2.3247564e-001 -4.5261687e-001 -3.2418630e-001 -6.6310608e-003 -6.0928779e-001  2.0758669e-001  6.5608158e-001 -6.5405387e-001  3.2426102e-001 -3.7592405e-001 -5.3678698e-001  5.1454318e-001 -7.6394244e-001 -3.6665583e-001  3.9767325e-001  5.5521318e-002  8.2877015e-001 -3.4973382e-001  5.3425968e-001  5.4439803e-001 -3.9937053e-001  6.1530826e-001  4.9574168e-002 -4.3811104e-001  2.6752329e-001 -1.7028796e-001 -3.4491497e-001 -5.0993463e-001  6.3477549e-001  2.7347589e-001  3.9935511e-001  4.2163294e-001 -3.4097460e-001 -4.9464932e-001  5.1662319e-001 -3.5082593e-001  5.6342452e-001 -3.9255517e-001 -2.2371226e-001 -3.5369479e-001  9.0065167e-001 -5.0501973e-001 -5.5507135e-001  3.2652537e-001
 -5.5786805e+000 -4.4631342e-001  3.7193914e-001  3.5272759e-001  9.7236848e-001 -4.8492150e-001 -3.0834860e-001 -4.9945409e-001 -6.9509439e-001  1.5146307e-001  3.6604874e-001  7.7829305e-001 -5.1721836e-001  1.6778819e-001 -5.2991856e-001  5.0192128e-001 -3.4116622e-001 -7.5197890e-001 -4.5503019e-001  5.6173028e-001  6.2918090e-002 -7.7588071e-001 -2.1660828e-001 -2.5096504e-001 -4.4184299e-001  3.0265660e-001  5.6147852e-001  4.3223662e-001  1.2238238e-001  4.8295006e-001 -5.5942112e-001 -4.7487241e-001 -5.0051731e-001 -4.5816444e-001 -6.5099468e-001 -4.2754422e-001  2.6160615e-001 -5.4805635e-001  1.4307515e-001 -4.8177135e-001  4.2860634e-001 -7.4547752e-001  6.5795826e-001 -5.2662470e-001  4.0264102e-001  5.2667958e-001  3.8275612e-001 -2.5658235e-001  3.4431659e-001 -4.1056420e-001 -8.2364267e-001 -4.1563441e-001 -3.7909817e-001 -8.8559266e-002  4.7685174e-001  5.8201257e-001  3.0927374e-001  4.5568428e-001  5.8200866e-001  4.7355464e-002  3.5015622e-001
 -8.2361602e+000  6.3499231e-001  2.7625526e-001  5.4969856e-001  6.6436831e-001 -4.4719940e-001  3.7107535e-001 -3.8763910e-001  4.8640551e-001 -6.1372148e-001  4.3696857e-001  4.8763640e-001  6.7871038e-001 -2.4351946e-001 -4.8973021e-001  2.4089919e-001 -3.5097996e-001  6.8616893e-001 -5.9053919e-001  5.1888010e-001  3.5185447e-001  2.0696408e-001 -3.4759257e-001 -6.1128654e-001 -5.9881017e-001  3.3864704e-001  5.8229269e-001  3.6167241e-001  6.2226885e-001  5.5462167e-001  6.0249119e-001 -6.6970410e-001 -4.2465309e-001 -6.9316515e-001 -3.4394507e-001 -1.5063424e-001  1.6201528e-001 -4.7885086e-001 -3.3985118e-001 -3.8301517e-001 -5.3750994e-001 -4.9550789e-001  8.0056446e-001 -3.6533054e-001  2.8561440e-001  5.6986983e-001 -3.7516911e-001  5.0208306e-001  4.4054190e-001 -2.6906374e-001  8.9114560e-001 -4.3098816e-001 -4.8094030e-001  2.2851296e-001 -5.3825581e-001 -2.4798368e-001  3.5568766e-001  4.6628031e-001 -2.7524998e-001 -2.3203019e-001  5.0171297e-001
 -7.4850925e+000  4.5463922e-001  2.9271033e-001 -6.7688987e-001 -2.8831367e-001 -4.7136917e-001 -8.4959506e-001 -1.6420672e-001  4.0368266e-001 -4.5070519e-002 -6.6227377e-001 -3.0010650e-001  3.9765580e-001  7.4790373e-001 -1.7013620e-001  1.9645788e-001 -3.7279675e-001  7.4730682e-001 -4.2460056e-001  3.2816426e-001 -6.3508672e-001  1.8053206e-001  7.0084819e-001  1.5840506e-001 -1.4610917e-001  4.3353832e-001  3.7399454e-002  3.8185949e-001  6.1676748e-001 -3.7971299e-001  6.6057986e-001 -5.3800745e-001  6.0089127e-001  5.4359348e-001 -6.8315392e-002 -2.0466244e-001 -5.8658566e-001 -1.6569383e-001 -2.8134613e-001  7.2948336e-001 -4.4224118e-001  3.3521083e-001  6.1835608e-001 -3.7248854e-001  1.5036598e-001  5.9145170e-002  5.2058217e-001  3.7499880e-001  4.1528831e-001 -2.2558637e-001 -2.2667293e-001 -3.0536977e-001 -4.0982672e-001 -9.1579623e-001 -3.7296593e-001 -2.7511004e-001 -4.3693014e-001 -5.4155777e-001  7.5505694e-001  5.9576703e-001  3.3550559e-001
 -5.2930972e+000 -5.2965900e-001  4.4968347e-001 -5.0342737e-001 -2.4686269e-001 -2.9878849e-001  5.9240577e-001 -2.6338685e-001 -6.8342841e-001  3.3438190e-001 -1.1147673e+000 -6.0565313e-001 -6.2455499e-001 -7.3643548e-001 -2.9775581e-002  4.6782962e-001 -3.4914043e-001 -5.9261782e-001 -4.1685059e-001  4.2174387e-001 -6.0147809e-001 -6.1175201e-001  5.4617628e-001  5.4031522e-001 -1.3523381e-001  2.5485083e-001  1.3004188e-001  3.3708186e-001  1.4689291e-001 -2.9775556e-001 -2.3243633e-001 -3.8382942e-001  7.1310048e-001  7.2822116e-001  2.1029220e-001 -3.5991030e-001 -4.9914919e-001  3.5254171e-002  9.6949648e-002  5.1938327e-001  4.4881793e-001  2.9447872e-001  4.6350050e-001 -3.9904713e-001  3.0224769e-001 -3.2594002e-002 -9.1255694e-001 -1.8585483e-001  4.0402226e-001 -4.2423855e-001  1.6509056e-001 -2.3486189e-001 -3.1837197e-001  6.8844823e-001  5.2261620e-001  3.3577281e-001 -2.5727167e-001 -5.1464473e-001 -4.0062604e-001  2.3498958e-001  3.6491202e-001
 -7.0581811e+000  6.3032137e-001  1.8530980e-001  2.5141810e-001 -6.5018315e-002  4.2090489e-001 -4.0437604e-001  5.5960893e-001  4.2506587e-001  3.8820808e-001 -5.6949008e-001  4.3686412e-001  5.0802084e-001 -6.0600280e-001 -6.8087766e-001  1.3730271e-001 -3.6779729e-001 -2.5961729e-001 -4.7647166e-001 -3.4362527e-001 -6.6769186e-001 -7.3354026e-001 -8.6214786e-001 -3.1898662e-001  3.7751462e-001  2.4210337e-001  7.1260237e-001 -5.6750589e-001  5.4643602e-001  3.9030775e-002 -5.2261364e-001  4.8080789e-001  5.6533129e-001 -2.6739153e-001  2.0088400e-001  5.9618818e-001 -5.4645337e-001 -9.8135511e-002  6.6675335e-001  5.1264932e-001 -4.3909115e-001 -1.6904816e-001 -3.3489537e-001 -4.0544264e-001 -5.9490240e-001 -3.8137834e-001 -7.7772695e-001  3.5853273e-001  3.9076681e-001 -2.8777470e-001  4.3082319e-001  5.1514850e-001 -2.8023965e-001 -3.7543266e-001 -4.2975159e-001 -2.8952529e-001  7.9292570e-001 -3.3342443e-001  4.4559031e-001  4.3558043e-001  2.6491517e-001
 -7.0782328e+000 -4.1274068e-001  3.8964796e-001 -2.6205417e-001  1.0726967e-001  3.4839670e-001 -5.3293283e-001  5.6186397e-001 -7.2499626e-001 -3.7277967e-001  8.3481927e-001  3.7682444e-001 -4.9500778e-001 -4.3159180e-001 -7.0311748e-001  3.9368075e-001 -4.3129202e-001  1.1040909e-001 -3.2866778e-001 -3.1211548e-001  5.6985400e-001  1.1808714e-001 -8.1046118e-001  2.3714582e-001  3.2768322e-001  2.3394383e-001  6.6702309e-001 -4.9275064e-001  1.0661360e-001  1.2044747e-001  5.7381319e-001  5.1254136e-001  5.3271699e-001  3.2085762e-001  9.8037853e-002 -3.9239563e-001 -5.4959272e-001  6.8039303e-002 -7.8299102e-001  4.4576993e-001  3.7167597e-001 -9.3652929e-002 -1.7711336e-001 -4.6996107e-001 -6.7566050e-001 -3.8059436e-001 -2.9180829e-001  6.0051024e-001  4.4922129e-001 -2.7178287e-001 -4.6067988e-001  4.4481436e-001 -3.2871804e-001 -6.1249568e-001  4.8334670e-001  4.8545261e-001  6.2328898e-001 -3.1676243e-001 -7.5962473e-001  6.3173346e-001  2.3141193e-001
 -8.6179091e+000  1.1441022e+000  6.5421693e-001  2.2075187e-001 -4.2388875e-001  5.6424173e-001  2.9108045e-001 -2.8051018e-001  4.3081386e-001 -4.7553303e-001 -6.3977675e-001 -1.0659901e-001  7.2559784e-001  1.1156380e-001 -4.8824098e-001  1.0378153e+000 -5.0034097e-001  4.3101740e-001  9.0803931e-001 -5.7655810e-001 -3.4369565e-001  2.9450473e-001  5.3180534e-001 -4.0880175e-001  5.1918363e-002 -8.4684569e-002  2.6258835e-001 -8.0309595e-001  6.0097487e-001  2.8944470e-001 -1.9115019e-001  2.7158279e-001  9.0223657e-002 -3.0563405e-001 -1.7008492e-001 -7.1374143e-001  1.8838892e-001  9.3854245e-002  1.9431633e-001  3.6888910e-001  7.3385924e-001  2.2107091e-001  4.7193307e-001  4.0292924e-001 -2.5650867e-001  3.7371010e-001  8.1436130e-002 -4.1608554e-001 -1.0152480e+000  1.0307443e+000 -7.4505848e-001 -1.1529523e+000  9.2600593e-001 -8.8222605e-002  1.0043491e+000  4.7369877e-001 -5.5800565e-001  1.7593962e-001 -1.5702243e-001  2.5631618e-001  7.4095164e-001
 -8.6613629e+000  4.4660892e-001  4.0707671e-001 -3.0372342e-001 -3.6330576e-001 -3.5900443e-001  3.2193680e-001  2.9581976e-001  2.7440387e-001  3.0943156e-001  3.8769122e-001  2.4704619e-001  3.2014509e-001 -3.7518896e-001  2.8949345e-001  4.1569433e-001  3.4316004e-001  4.1987565e-001  4.4951090e-001  3.6350819e-001  3.8921538e-001 -3.9171379e-001 -3.7741561e-001  3.1268780e-001 -2.6050393e-001  2.4549347e-001 -3.2564980e-001 -4.1528560e-001  2.9405430e-001  2.7663324e-001  4.2708099e-001 -3.8302394e-001  3.8037048e-001  2.9754351e-001  3.6485747e-001 -2.9371029e-001  3.5362434e-001 -3.5213209e-001 -2.8069069e-001  2.9281020e-001  2.7104305e-001  3.6791155e-001 -3.9857868e-001 -4.0173503e-001  5.4267837e-001 -4.1496916e-001 -3.2410679e-001 -3.6348274e-001 -2.5588134e-001  4.1775760e-001 -3.8851539e-001 -3.8008364e-001  4.8890505e-001  4.0980759e-001 -4.6620925e-001 -4.9337753e-001  3.6530418e-001  1.9258634e-001 -3.7149532e-001  3.2895566e-001 -5.2683973e-001
 -1.5656421e+000 -5.0116112e-001 -7.3517144e-001 -5.3484651e-002  2.6412810e-002 -3.7467292e-001 -6.2858609e-002  1.8088742e-001 -8.4519439e-001  4.3356871e-001  3.4986508e-001  1.7626767e-001 -3.4897496e-001 -1.3420963e-002  3.3785334e-001 -7.2342672e-001  5.6101408e-001 -2.3905225e-001 -8.7368225e-001  5.8179435e-001  6.3110535e-001 -5.3319173e-001 -3.3362155e-001  3.5461294e-001  1.1398282e-001  4.3841546e-001 -5.2247136e-001  3.8298999e-001  4.5022334e-001 -5.9215637e-001 -3.2040869e-002 -6.6381870e-001 -3.1642454e-001 -7.9484709e-003  6.3424390e-002 -3.8986658e-001 -3.1601335e-002  3.6853345e-001 -5.8962961e-001  4.6114764e-002  5.8528962e-001 -3.8701568e-001 -3.1443339e-001 -8.4661260e-001 -5.4000488e-002 -3.4045741e-001 -7.7715933e-002  1.9123123e-001 -7.6382089e-001 -6.5464633e-001  4.3924888e-001  3.2747717e-001 -7.7946494e-001  3.6069334e-001 -9.8883760e-001 -1.1184817e+000  2.7602079e-001 -4.0515880e-001  1.3559676e-001 -3.2876968e-001 -8.0854266e-001
