  1.5762759e+000 -6.7463093e-001 -1.3758140e+000 -2.1396562e+000 -1.0290401e+000 -1.2414417e+000 -5.5846481e-001 -2.9391458e-001  1.5655929e-001 -9.3291684e-001 -2.3202914e+000 -2.2364117e+000 -1.2758435e+000  8.7502408e-001 -4.1325212e-002 -8.7401075e-001 -4.8267048e-001  1.3385837e+000 -1.1737058e+000 -3.0607266e-001  3.2069562e-001  4.2338289e-001 -4.6474022e-001 -1.4616206e-001  2.1885992e+000  1.4670084e-001  1.4474280e+000  5.5990456e-001 -1.0663907e+000  1.3937876e+000 -9.2000975e-001
 -7.7465853e+000 -1.0821589e+000 -4.9498130e-001  1.8523093e+000 -1.2839419e-001 -1.4723402e+000 -8.4310372e-001  1.5076333e+000  8.9452249e-001  7.8790115e-001 -8.3757717e-001  4.1366846e-001  1.3535789e-001 -7.3003936e-001 -1.5656968e+000 -1.3226453e+000  1.2466435e+000  2.8008773e-001  1.6936839e+000  1.1129447e+000  1.3261895e+000  1.1034838e+000 -1.3907073e+000 -5.6449126e-001 -1.2637442e+000  2.2070618e+000  1.3475211e+000  7.0503665e-001 -5.9314849e-001 -1.8790200e-001  1.1198845e+000
 -3.6133162e-001 -7.4757631e-001 -1.3862024e+000 -1.6808869e+000  1.0067030e+000 -1.1773975e+000  1.2061554e+000  7.6942228e-001  1.1556227e+000 -2.5593043e+000  1.0574945e+000 -1.4941518e+000  7.2650512e-002 -5.9592318e-001  1.1355604e-001 -9.7559363e-001  9.9315214e-001 -1.3028071e+000  7.4620644e-001  2.8323526e-001 -3.3109638e-001  7.7189462e-001 -1.3558601e+000  1.0008582e+000 -9.2997619e-001 -7.3451287e-001 -1.3242889e+000  3.7782469e-001  7.2801131e-001 -2.2234372e-001 -1.2903114e+000
 -1.2231065e+001  1.5108094e+000 -1.2335351e+000  4.3581998e-003  1.0447771e+000 -1.1124629e-001  1.0456741e+000 -1.2214132e+000  1.7472863e+000  1.4861591e+000  8.7286229e-001 -7.3798250e-001  1.6783707e+000  8.6298883e-001  3.0347541e-001  1.7920781e+000  1.9936072e-001 -7.4663826e-002 -1.5015397e-001 -1.5795566e+000  1.4106187e+000 -9.0233156e-001 -1.1239613e+000  1.0892829e+000  8.2816087e-001 -6.2048869e-001  9.6453190e-001  1.1720860e+000 -5.7510557e-001  1.5200413e+000  1.0584569e+000
 -9.2522481e+000  6.8263937e-001  1.2686524e+000 -2.4534333e-002 -1.0595095e+000  1.5985421e+000 -1.3171223e+000  7.1658273e-001  1.8686145e+000  8.0522835e-001 -6.2390362e-001  2.0022653e-001  1.3010593e+000  1.2274831e+000  1.0714824e+000 -5.1750115e-001  1.2741193e+000  9.4921995e-001 -6.1237093e-001 -1.4293096e+000 -1.7811138e+000  2.9438609e-001  7.1383927e-001 -8.2582243e-002  5.8810058e-001  5.7147522e-001  1.4084627e+000 -2.1927767e+000 -5.7537030e-001 -3.5902064e-001  1.0746015e-001
 -3.2782432e+000  7.5855255e-001  9.6170356e-001  2.5162003e-001 -8.0572610e-001  1.2623746e+000 -9.3363010e-001 -4.5127586e-001  1.2550145e+000 -1.7934274e+000 -9.2282577e-001  7.0414735e-001  2.1001294e-001 -1.2170075e+000  1.3301952e+000  1.1831451e+000 -3.5094311e-001 -1.4664451e+000  1.5563019e+000 -1.5618672e+000  7.2989463e-001 -6.9690744e-001 -1.8562418e+000 -5.9759038e-001  7.8874321e-001 -1.1614010e+000  1.2821066e+000  6.9854153e-001 -5.0866952e-001 -1.2505837e+000 -9.3490749e-001
 -7.1478010e+000 -1.7547750e+000 -8.4386009e-002  3.8796503e-001  1.3184846e+000  4.0711696e-001 -3.5155205e-002  1.2468747e+000  1.3738602e+000 -1.7724529e-001  1.8036022e+000  8.9755229e-001 -6.4389878e-002  2.2182951e-001  3.2988585e-001 -1.9044198e+000  6.7001196e-001 -1.0428947e+000 -4.6624455e-001 -1.9642731e+000 -8.5810143e-001 -1.5267636e+000  1.0662292e+000 -1.3888396e+000  2.2175435e-001 -5.3682204e-001  1.3741765e+000  1.5965508e+000  8.8327923e-001  1.8415259e+000 -2.4549664e-001
  3.4634580e+000 -6.2987256e-001  8.8350948e-001 -2.2860548e-001  7.1082220e-001  3.8332509e-001 -1.4598263e+000 -1.0845463e+000 -1.5853281e+000  1.6521079e-001 -2.7906710e-003  3.2016632e-001 -2.0533914e+000 -1.4279346e+000 -9.1053104e-001 -1.5228682e+000 -1.2581762e+000  1.2156457e-001  6.7215283e-001 -2.1710733e+000 -3.0042629e-001 -1.7353488e+000 -1.0584465e+000  8.1784991e-001  6.9846261e-001  1.1379976e+000 -1.0325192e+000 -1.4488374e+000  7.3824135e-001 -8.5198048e-001 -4.4000161e-001
 -4.4505285e+000  1.5550167e+000  2.2781097e+000  9.3015030e-001 -9.7188807e-001 -8.2186641e-001 -1.5657944e-001 -8.7830639e-001 -1.1347819e+000 -1.0092085e+000  7.5599348e-001  5.5967775e-001  5.2451676e-001  7.9307963e-001 -7.5432007e-001  4.2153153e-001 -9.8036213e-001 -4.6018260e-001 -1.1732392e+000  2.1179239e+000 -5.1865066e-001 -1.6618863e+000 -1.2600176e+000 -1.7407881e+000  1.8920402e-001 -1.2311355e-001  5.9576712e-002 -2.1182115e+000  7.0606906e-001  1.0777326e+000  1.4909275e+000
 -5.9479349e+000 -7.1062668e-001  2.1572588e+000  1.2140776e+000 -2.4738910e-001  4.7486374e-001  2.9923910e-001  1.3197278e+000 -1.1268781e+000  1.8737063e+000 -1.1086658e+000 -1.9040736e+000  1.8757392e+000 -9.7132753e-001 -1.2380900e+000  6.5354658e-001 -1.0110328e+000  1.5696394e-001 -1.7352265e-002  1.0524026e+000 -1.0744688e+000 -9.1003962e-001 -4.2581644e-001 -3.0793749e-001  7.6348911e-001 -7.3668964e-001 -1.3132571e+000  2.0106250e+000 -9.3488485e-001  1.3308643e+000 -8.3275755e-001
 -4.5452865e+000 -7.4450219e-001 -1.7057223e+000  9.5528810e-001 -1.6688356e+000  5.0304938e-001  1.5192043e+000  9.6650514e-002 -1.3273611e+000  1.1160408e+000 -7.5343369e-001 -1.0209774e+000  3.3100099e-001 -5.0226615e-001  1.4380255e+000 -1.2915903e+000  1.2534266e+000 -9.0593378e-001  6.8873190e-001  1.3967655e+000 -9.5670395e-001  5.9283651e-001  1.0651712e+000 -4.3391940e-001 -6.9987981e-002 -1.9125403e-001 -1.0232982e+000 -2.2225880e+000  9.1543301e-001  1.5740594e+000 -1.0162394e+000
 -1.4085674e+000 -1.6701344e-001 -8.2340444e-001 -8.1525686e-002  1.6909370e-001  1.7457342e-001  1.2747254e+000  1.0815940e+000 -1.4071847e+000  4.4891166e-001  1.9418851e+000  3.9943526e-001  2.7458285e-001  4.9462592e-001 -6.5532261e-001  1.1167333e+000 -7.9232245e-001 -4.1796373e-001 -9.3785369e-001 -1.9147926e+000 -2.0190629e+000  1.1225591e+000 -9.7118591e-001 -1.4368661e+000  1.0119070e+000 -9.4817484e-001 -8.4366234e-001 -1.7691348e+000 -1.6819565e+000 -9.2347996e-001  6.5000023e-001
 -1.1725814e+001  8.5527354e-001  1.7768858e+000  1.3255637e+000 -6.5453056e-002 -5.3712076e-001  9.2772760e-002 -5.7514393e-001 -1.7699693e+000  8.6852540e-001  1.1421318e+000  1.0475009e+000  3.6859353e-001  5.0172266e-001  9.8036695e-001 -1.9638130e+000  1.4974642e+000  8.2531521e-001  1.2832031e+000  8.0226749e-001 -1.1364814e+000 -5.0474143e-001  8.7846967e-001  2.0451458e+000  3.1000251e-001  2.9858180e-001  8.0401347e-001  2.1170014e+000 -3.9900063e-002 -1.1825273e+000 -9.5715345e-001
 -7.2328710e+000  1.3972892e+000 -1.6227793e+000 -1.6455823e+000 -1.3591464e+000  3.9917142e-001  5.5800979e-001 -3.4497750e-001 -1.7309611e-001  2.4284160e-001 -1.0530616e+000  5.7992340e-001  8.2643812e-001  8.1086061e-001  5.8820616e-001  1.1184102e+000  1.3717081e+000  4.1120314e-001 -1.0103768e+000  2.3098211e-001 -1.5139085e+000  1.0194532e+000 -5.6568686e-001 -3.2640135e-001 -1.0729440e+000  1.4150334e+000 -1.1625302e+000  1.8734840e+000  9.5286895e-001 -1.4172093e+000  1.7005337e+000
 -5.8786922e+000 -1.1861669e+000  1.7115975e+000 -1.4325018e+000 -9.4747114e-001  1.1191391e+000 -8.6716282e-001 -5.5662827e-001  1.0455205e+000  1.9831056e-002  8.4909191e-001 -1.2792792e+000 -1.1183693e+000  1.2358278e+000  9.8720356e-001 -1.7700230e-001 -1.4161427e+000  1.1111013e+000  1.0293521e+000  1.4583328e-001  1.0272459e+000  4.3325547e-001  7.9048699e-001 -1.1882394e+000 -1.1418876e+000 -8.6153257e-001 -1.4945390e+000  1.2071001e+000  7.2303331e-001  1.0429394e+000  1.0247734e+000
 -4.6349650e+000 -7.8989336e-001  1.8934412e+000 -1.8230285e+000 -8.0562418e-001  2.2587425e-001 -1.0317311e+000 -4.2245482e-001  1.0202934e+000  3.7346333e-001 -1.1145381e+000  7.6736364e-001  8.6194430e-001 -1.1327614e+000 -1.5497498e+000  1.3031707e+000  4.9471573e-001 -1.1354767e+000 -1.1462900e+000  2.6924196e-001  1.1220003e+000  9.3580551e-001  1.2091023e+000  1.2896948e+000 -1.6429085e+000  5.8492943e-001 -7.1824986e-001  1.0436518e+000 -1.9051597e-001 -5.1606892e-001 -1.3192120e+000
 -6.0200305e+000  1.5596354e+000 -1.0555339e+000 -1.6367332e+000  1.2911093e+000 -4.1596325e-001 -1.3884025e-001  8.7353565e-002  1.5810575e+000 -1.2061977e-002  8.8640794e-001  1.5754913e+000 -6.0474100e-001 -4.2180447e-001  9.0508757e-001 -1.4637758e+000 -1.1412434e+000  3.6736216e-002 -3.4139221e-001  1.0705333e-001  1.4906796e+000  7.8531369e-001  1.1992723e+000 -5.1799673e-001 -1.2398798e+000  1.2101068e+000 -9.7231788e-001 -2.2508599e+000  9.5448393e-001 -5.8012565e-001  1.0982498e+000
 -4.3200224e+000  9.1403232e-001 -2.1405984e+000  1.5054594e+000  9.3158733e-001 -1.2732727e+000  1.4735528e-001 -2.5906328e-001 -1.6244103e+000 -1.6574625e+000  4.5513595e-001 -4.5355949e-001 -1.7887523e+000 -3.3628165e-001  9.4130343e-001  7.2061493e-001  5.2882009e-001  1.1475708e+000 -5.2553871e-001  1.2502028e+000 -1.6036941e-001 -1.2411166e+000  8.7284784e-001 -1.5934333e+000 -9.2598674e-001 -9.2346386e-001 -3.2130027e-001  2.2142494e+000 -8.5759418e-001  7.6700935e-001  1.5933066e+000
 -8.8972645e+000 -1.0273743e+000 -1.7409648e+000  1.1820825e+000  2.0053657e-002  7.8493819e-001  6.5369290e-001  1.0011461e+000 -1.1504361e+000 -2.2251830e-002  2.3524240e-002  1.1018291e+000 -1.6696353e-001  8.2270104e-001 -1.2823294e+000  1.9859242e+000 -1.8713933e+000  1.2998128e+000  6.1032137e-001  9.0991006e-001  1.6817568e+000  4.3686585e-001  6.1317013e-001  3.5783533e-002  4.0455813e-001 -4.7012146e-001  5.0878868e-001  1.5698045e+000  1.3214302e+000 -1.7329896e+000 -1.6429594e+000
 -1.2632957e+000  6.4148720e-002 -1.2259353e+000  1.0402821e+000  1.1130099e+000 -2.2750067e+000 -9.6353479e-001 -1.0589336e+000 -8.8721656e-001  1.0653917e+000 -1.0760090e+000  7.6966396e-001  8.7472050e-001 -4.3344229e-001 -3.3034834e-001 -3.1049188e-001 -5.5693257e-001 -1.1541666e+000 -1.5700244e+000  9.8605890e-001  7.8235814e-001 -9.3002872e-001  8.6947298e-001  1.5391634e+000  3.9391120e-001 -8.7189545e-001  8.2528363e-001 -2.1903119e+000 -1.3106000e+000 -4.4359516e-001 -1.7259832e+000
 -9.2495753e+000  1.0383148e+000  1.9040283e+000  1.1925318e+000  1.1595256e+000  6.1767400e-001  1.6672502e+000 -9.3300517e-002 -7.4988829e-001 -1.2662522e+000 -2.2301803e-001 -1.6040157e+000 -2.1357926e+000 -5.1124847e-001 -4.5906575e-001  7.9077151e-001  5.9078082e-001  9.6760814e-001  7.2783093e-001  1.2569531e+000  1.0976092e+000  2.0300405e+000  9.2570259e-001  8.6537011e-001  7.5386445e-001  3.0588767e-001  4.5306691e-001 -2.3713749e+000 -6.5302304e-001 -5.8409081e-001  5.4729122e-001
